199 100
the -0.002512075 0.0328128 0.012591872 -0.041176714 -0.012600876 -0.04863255 -0.018329859 0.044584665 -0.043866076 -0.0016885884 0.025954332 0.041361216 0.026427533 -0.04779624 -0.021238863 -0.02584722 -0.010649502 0.032732334 0.0030894764 -0.02104789 -0.04132382 -0.04901376 -0.017135084 0.012457095 -0.029520309 0.012708429 0.014093105 -0.00926578 0.021116864 -0.0026397482 0.04818963 -0.045063496 -0.029804338 0.0016256683 -0.033912376 -0.04853679 -0.030210972 0.024563719 0.012542132 0.046617996 0.01592404 -0.042035628 0.016619015 0.0073532686 0.026587177 0.0047855154 0.029553149 -0.024642432 0.011250757 0.03534447 0.0334499 -0.03713169 -0.02267462 0.030851614 0.014496062 0.014263023 -0.017843507 0.046843003 -0.00067498535 0.041680936 -0.04577415 -0.042457473 -0.049267557 -0.0010983571 0.01329248 -0.00941949 -0.0499293 0.035272364 0.02658024 -0.007721506 0.0022957437 0.030438613 -0.0037386045 -0.032309316 -0.020698655 0.038068186 0.0007409081 -0.039193153 0.025678243 -0.029087199 -0.04338708 0.0037862659 -0.004935872 0.032128144 -0.012415659 -0.04327636 0.0054773465 -0.021600021 0.020592067 -0.04533572 -0.046531618 0.022783462 0.009170689 -0.039947607 -0.04639423 -0.011696637 -0.029671622 -0.01476232 -0.0008565299 -0.010512341
of -0.00023989752 -0.04963863 -0.0052737705 0.04012317 -0.04082463 -0.03736173 -0.028655803 -0.011548042 0.0179693 -0.03228674 -0.033649065 0.049819443 -0.011256538 -0.041646827 0.021568406 -0.024402643 0.04817349 0.028468397 -0.025930954 -0.04429512 -0.020104636 -0.030678213 0.03463416 0.007655777 0.012182437 0.0031449199 -0.02651359 -0.019736279 -0.018370248 -0.04986409 0.044671383 0.015757766 0.04540504 -0.033562742 -0.0012737885 0.0022503622 -0.025020504 0.038041297 -0.04804107 -0.012594283 -0.0038651936 -0.03823396 -0.016852118 0.008245707 0.034203377 0.02217174 0.022466075 -0.020321358 0.03648812 0.024957124 -0.03284408 0.04303701 -0.030198777 0.005165171 -0.036675848 0.044872914 0.035748232 0.0073142424 0.0037600994 0.0003254786 0.0049103387 -0.043689083 -0.028622126 0.006590318 -0.0013210997 -0.020255363 -0.016793381 -0.013069533 0.028008018 0.03530321 -0.037274085 -0.023754014 0.014161732 0.023471568 0.03555807 0.049723733 -0.00319729 0.043657135 -0.0022402033 0.02063905 0.007582605 0.04820056 0.015321378 -0.032802142 -0.009806968 0.04192475 -0.010905206 -0.008081891 -0.013918303 0.03445119 -0.004305888 -0.004231561 -0.011004448 0.010103546 -0.013062466 0.022973884 -0.027358998 0.03301898 0.043894593 -0.0074500553
transmission 0.045008074 0.026587132 -0.03620075 -0.047813118 0.0042291656 -0.049335647 -0.03631196 0.046331678 -0.012216341 -0.00030773878 -0.015581429 0.0071718916 -0.0489797 0.045047615 -0.005290162 -0.028293883 -0.025802363 -0.015008174 -0.01921451 -0.040020157 -0.010029864 -0.030695736 0.037148956 -0.01457293 0.008599378 -0.037489593 -0.027417673 0.049261224 -0.044427108 0.021626119 -0.024201011 -0.0056432374 -0.007996082 -0.016645849 -0.048800528 -0.00951346 -0.0222983 -0.037338756 -0.030554866 0.03996798 -0.018154822 0.013909351 0.028550457 -0.0018372424 0.020395707 -0.034464754 0.0164521 -0.03924545 -0.006290473 -0.008708395 -0.009447373 -0.013396908 0.00039137527 -0.014718175 0.024811868 0.013350178 0.024076473 0.018632982 -0.0012595877 0.00034457445 -0.043254316 -0.042894628 0.044025313 0.02215996 0.003038656 -0.039147474 -0.039177466 0.0150396265 -0.017087828 0.016247403 -0.010197245 0.027529825 0.03684138 0.013632666 0.048412863 0.006587304 -0.008705199 -0.0041234605 -0.03988179 0.048652958 -0.019234419 0.020525064 0.03927579 -0.03713306 0.0009804145 0.03847182 -0.014467835 0.021566477 0.008540165 0.0039324053 -0.032514893 -0.019090807 -0.03761009 -0.018338252 -0.039516248 -0.0019888766 -0.04820771 -0.01571288 -0.013804067 0.039780114
influenza 0.03730515 0.008363701 -0.047178496 -0.025330318 0.008341063 -0.038562488 0.0059112683 0.031643476 0.04857776 -0.043248843 -0.032747403 0.015210759 -0.005396582 -0.011676561 0.029923651 -0.04458467 -0.008154441 0.037365306 0.014414575 -0.033540927 -0.023010362 0.02240694 0.028457116 -0.0035427213 0.03618527 -0.0051499717 0.022624444 0.026283 -0.041599654 -0.011816859 -0.04687053 0.041887287 0.0025333539 0.020372223 -0.040928423 -0.00015724823 -0.0064671263 0.020515312 -0.048395347 -0.0007268302 0.02049904 -0.04174521 0.04180566 0.038192216 -0.040370442 0.006245531 -0.030720664 -0.0055947304 -0.022582317 0.039442565 -0.04316776 -0.0391165 -0.009942792 -0.019681681 0.019940082 -0.008147202 -0.01137799 -0.023055578 -0.047076773 0.018102814 0.01662996 -0.027833594 0.04552641 0.02765007 0.037510764 -0.04179902 0.03609476 -0.010039546 0.0122342 -0.042895414 0.045427192 0.04462805 0.01158724 0.04886402 0.016427208 -0.03454127 0.03506 -0.028581727 -0.0122414455 0.008585133 0.024391081 -0.027968276 -0.042523086 0.022756208 0.018791232 0.000882484 -0.0045382865 -0.047721136 -0.014659882 -0.027903438 -0.028684927 -0.03521446 -0.01523893 -0.021587467 -0.00782907 -0.0024941787 0.032482598 0.0069826357 0.04927497 -0.03738452
covid -0.0487849 -0.029081238 -0.036098063 0.014361773 -0.017314374 -0.03369262 0.03511924 -0.034220897 -0.006984256 -0.033784676 -0.018047772 -0.0007726662 0.02814189 -0.030820573 0.046446014 -0.001553379 0.030076254 -0.016317524 -0.038641226 -0.041512012 0.01495612 0.024609912 0.039648343 0.04768313 0.028871048 0.021263484 0.013577137 -0.026327325 0.027083006 0.04398861 0.037529517 -0.02332207 -0.04411279 0.041926015 0.020470332 0.039958958 0.016283024 -0.042497456 0.041743245 0.03731585 -0.047983374 -0.03830272 -0.0347945 0.020818602 0.042319085 -0.035897553 0.013527323 -0.01712241 -0.028377462 -0.048945595 -0.011383165 -0.042955007 0.046957385 0.0413338 -4.5754015e-05 -0.0429265 0.046814624 -0.021546949 -0.009209622 0.030697253 0.019799184 -0.04415548 -0.018464636 0.025690082 0.007200647 -0.028638113 -0.01580622 0.04274011 0.018037308 -0.04458047 -0.004866801 0.009583484 0.00013903528 -0.014548205 0.030382123 0.02802061 0.027761426 0.04565802 0.039056685 -0.015791465 -0.01440797 -0.013732336 -0.033663288 -0.047120642 0.028994087 0.035122644 0.0033392683 0.000682164 0.042948674 0.003775619 0.009935331 0.023803283 0.014090907 0.01574302 -0.03494482 -0.031004537 -0.011063516 0.042042468 0.036919963 -0.023722399
19 -0.042725064 -0.014935233 0.026105214 -0.042389143 0.035686675 0.039059725 0.043665994 -0.025660431 0.045939956 -0.0071332827 0.02338991 -0.01199653 -0.049269747 -0.028750658 -0.034954976 -0.0034087896 -0.021851325 -0.014672566 0.009518743 0.049786296 -0.035284508 -0.0010422952 0.010031164 -0.032349303 0.009687386 0.026937354 0.048889313 -0.019622684 0.014842723 0.043858435 -0.0032572746 0.022677626 0.022094298 -0.029727567 0.038790952 -0.0007346496 0.029094722 0.03692266 0.005752839 0.048988666 0.02816024 -0.008533288 -0.0015822276 -0.03220799 -0.019295359 -0.024834085 0.011277389 0.039830957 -0.025770748 0.01924448 -0.016212702 0.035642695 0.029084135 0.0010968223 0.0451164 0.0499668 0.048317086 -0.0054708607 0.0073013194 -0.02179668 -0.03222604 -0.03558719 -0.04051938 0.042910073 -0.032116197 -0.002072215 0.00389589 -0.0077591166 -0.047097743 0.04945792 0.043216173 -0.016836096 -0.04397739 -0.025760878 0.03284018 0.008698355 -0.006171752 0.011000119 0.020914841 -0.020466363 -0.029795075 0.025285352 -0.017163098 -0.008728184 0.009518839 0.049216975 0.040129434 -0.009325732 0.011135004 0.0010121353 -0.048841357 -0.020704806 -0.04354272 -0.013126947 0.016098645 -0.009073149 0.024086107 0.016784158 0.033158015 0.03291631
virus 0.0048769116 0.0009351 -0.044767953 -0.03215774 -0.009937428 0.015532505 -0.042901933 0.021129217 -0.013243578 0.047412243 0.043161634 0.033092108 -0.02531575 -0.0044726133 -0.03188964 0.01646265 0.027607407 -0.0021537654 -0.03791803 -0.04198109 -0.00018249825 -0.0330285 -0.012278248 0.0030032173 0.04419924 0.040055823 0.0037684552 0.008910526 0.027138125 0.03827757 0.028948117 -0.01924187 -0.040749133 0.0051375143 -0.020425785 0.029482853 -0.0033751018 -0.0013755672 0.0023392066 -0.030428445 -0.043815613 0.03458978 0.044478785 -0.0006254539 -0.019119812 0.03346402 -0.036157586 0.005664874 0.02902795 0.036844324 -0.008502603 -0.0011739247 0.026662875 0.01379681 0.026323054 0.029732775 0.014932822 -0.03469815 -0.006285012 -0.025162375 -0.032774232 0.03551164 0.005498994 -0.0026998296 -0.029899968 0.012889933 -0.00963844 0.0045655966 -0.01573981 0.035165336 0.022085194 -0.021096969 0.031988036 0.037614096 -0.048093952 -0.016621768 -0.016904332 -0.029161 -0.008742094 0.030609619 -0.039668582 0.012735847 0.004843734 -0.010247301 0.01743846 -0.048530925 0.015079085 -0.046601463 0.021640304 0.039346527 -0.03845159 -0.016653609 -0.011755694 0.0014769658 -0.04855409 0.024737384 0.03465486 -0.039703 0.0131976865 -0.012202371
for 0.022091988 -0.011056077 0.025715914 -0.037864458 -0.010415066 -0.024358809 0.01722506 0.025456477 -0.01732869 -0.006762862 0.033431325 0.044139277 -0.020265354 -0.045321703 -0.0023599379 0.04643221 -0.04891646 -0.0379272 -0.035676133 0.039948795 -0.04918796 -0.037901055 -0.027617395 -0.04893848 -0.028341854 0.004941415 -0.016472768 -0.030962622 -0.01744441 0.039115477 -0.010635592 0.024629805 0.019874457 -0.00057249144 0.020739023 0.01639432 -0.028088165 0.015435163 -0.009034324 -0.026021516 0.009489011 -0.038858116 -0.036927022 0.0023693442 -0.038140535 -0.046067595 0.00877285 -0.022818351 0.007088911 -0.03939911 0.037964795 -0.029003536 0.03421599 0.00064330176 0.0059656277 0.026176993 0.046185326 0.002439905 -0.014029395 -0.04232968 0.014947835 0.017604802 0.041777182 0.015617702 -0.040944956 0.0027481206 0.035699893 -0.04123213 -0.030790627 -0.034859955 0.013415564 0.026457999 -0.045139182 0.037365247 -0.023133207 0.0010730028 0.030216966 -0.03438107 0.006383527 -0.015737928 -0.041475512 -0.009456802 0.035534892 0.029369924 0.016793404 0.034926962 0.032003712 -0.038863193 0.04989377 0.0027953014 0.036895324 -0.008890487 -0.020817185 -0.02221538 -0.022203935 0.041675556 -0.001525104 -0.046455096 0.01901741 0.037520077
is -0.016955793 0.041540597 -0.018587865 0.013454746 0.009685706 -0.047845244 -0.009789657 0.030118357 -0.028427828 0.0362509 0.007702481 -0.008837413 0.036977734 0.016853098 -0.023120105 -0.006689191 0.034877587 -0.013694633 -0.010010779 -0.022277106 0.047347058 -0.007378686 -0.0047860965 0.010148119 0.04697081 -0.019778108 -0.017188847 0.034068596 0.003291797 0.039735045 0.0046658404 0.03841493 0.0037577972 0.047730934 -0.032492686 -0.02427392 0.03049061 -0.011992574 -0.03251437 0.043984625 0.012156893 0.007413853 0.02117635 -0.01952207 -0.031152679 -0.015588999 0.031041231 0.007210456 -0.023955464 0.0045420043 -0.02595278 -0.026213635 0.01090648 -0.043517053 0.025787938 0.035842065 -0.03159528 0.044213865 0.041200053 -0.033296157 -0.000104248524 -0.02341795 0.034768116 -0.0017619841 0.034640145 -0.022050275 -0.003515087 -0.0431527 0.03532214 0.03569055 -0.033861388 0.040373337 0.025197279 -0.005936943 -0.00773374 -0.0072282664 -0.025760913 0.032297146 -0.0032907836 0.014690567 -0.0072950236 0.0280074 -0.010257818 0.042055395 0.04208633 -0.030641962 0.0019141808 0.0018609762 -0.017569028 -0.021730876 0.02409679 0.032518435 -0.0050776973 -0.025503768 -0.005372416 0.030921426 -0.039815176 -0.044523276 0.045126032 -0.017763413
to -0.0026217103 -0.04189507 -0.04615879 -0.048267733 0.0019201748 0.0045902506 -0.010839604 -0.0055186152 0.036676418 0.018141795 -0.03347521 -0.032076478 -0.010710157 -0.020176936 -0.041075062 -0.031017518 0.041658703 -0.0026110634 0.0330452 -0.009067498 0.038905155 0.029508237 0.026351582 0.047928516 -0.03554957 0.037900772 0.045137312 0.023901392 -0.040542863 -0.039896585 0.015836548 -0.031095052 0.040289614 -0.0015457869 0.028064262 0.045868132 -0.020705212 -0.009766031 -0.0068880543 -0.047905814 0.03151988 -0.046816137 0.048976813 0.0018886812 0.036037948 -0.030785084 0.047319602 0.023669373 0.033133473 -0.028298771 0.013049755 -0.02297814 0.041413497 0.047824714 -0.014959395 0.019246947 0.024018835 0.003461074 0.016090576 0.01864082 0.032998193 -0.030662656 -0.031145906 0.00033874437 -0.009267211 -0.006418504 -0.0035584345 -0.0020706542 0.044611502 0.0172452 -0.00014687702 0.046073843 -0.006555833 0.011716582 0.026237462 -0.027910782 -0.039811276 0.022080366 -0.026370347 -0.04166298 -0.00062311813 0.04791149 0.044704985 0.044022743 0.04830985 -0.043848585 0.029283654 -0.02707616 0.019021165 -0.0051007383 -0.004454255 -0.035505474 -0.0074222796 -0.025184179 0.04003242 0.0495356 -0.028648138 0.011435378 0.02530105 0.044658903
a 0.04683734 -0.009961583 -0.0491496 -0.045221545 0.02735484 0.03829262 -0.018153261 -0.016242217 0.0380239 -0.04943136 0.010585714 0.027517047 -0.009270359 0.018299963 -0.0063586608 0.035919342 -0.028928578 0.049781445 -0.038416624 -0.043031823 0.014138047 0.027990427 -0.014258098 -0.024483418 0.03979839 0.02590442 0.0012931116 0.031786595 0.027965974 0.038577665 0.0075137727 0.033623252 0.005746305 0.04920088 -0.011078276 -0.018616535 0.010896336 -0.017964661 0.023876015 0.021461856 0.04680847 0.0151139535 -0.04109899 -0.0073482506 0.00072032213 0.02119917 -0.014884733 -0.01974306 0.0017218366 0.036424745 -0.026392281 -0.0027204528 0.030413259 0.04713745 -0.0075280666 0.038138162 -0.027538752 -0.035524737 -0.023821224 -0.031119883 -0.048471786 0.032750297 0.017390061 -0.025390243 0.0447149 -0.041004576 -0.0054970495 0.034209166 0.04476321 0.00803908 0.04176594 0.014212202 0.014571596 0.02044833 -0.048472762 0.021257889 -0.032652654 0.046054807 0.017697643 -0.048739195 0.024419177 -0.011556793 -0.018270314 -0.04729382 0.03673995 0.047055516 -0.029940022 -0.04860679 -0.0042484514 -0.0074612126 0.04722506 0.03504839 -0.009046078 -0.02564391 -0.045467354 0.022141721 -0.0038107038 -0.028304994 -0.020396901 -0.019697024
and -0.03629694 0.032069575 -0.00030200556 0.0045424327 -0.02348609 0.036809575 -0.010811366 -0.012867235 0.040580336 0.024641383 0.023831654 0.043769572 -0.01278187 -0.022426499 -0.04056517 -0.009685874 -0.028438866 -0.03934089 -0.034883223 0.008889984 -0.038134445 0.02831031 -0.01437863 -0.0040328503 0.033333037 0.049796913 0.04683194 -0.022040976 0.001652956 -0.04093493 0.0448627 0.024463627 -0.03695657 -0.037362777 0.01872379 0.028681304 0.046621893 -0.0020953193 0.02636801 0.021845866 -0.016104065 -0.013026796 0.035747502 -0.009174239 -0.023773361 0.0077390075 -0.022176707 -0.015033327 -0.024702048 -0.021274865 -0.036799252 -0.021065487 0.0054874904 0.031613182 0.010823406 -0.047923874 -0.040673483 -0.02546432 -0.026426315 -0.0149976015 -0.030711377 -0.042211153 0.01926032 0.003593348 -0.010265876 0.003718853 0.038412157 -0.04254366 0.014321279 0.020696353 0.024471644 0.022184465 0.004809104 -0.04719838 -0.0047419295 0.0049576275 0.044872466 -0.011743724 -0.0268937 0.048410926 0.022715632 -0.03383409 0.027305055 -0.0351161 0.01731107 0.015982974 0.0006303899 0.0066396967 -0.04144739 0.033349264 0.034731712 -0.0065001026 0.015836585 -0.0055756345 -0.0018306375 -0.024012137 -0.041339647 0.04205394 -0.015936792 -0.019412864
– 0.027695525 -0.04941521 -0.0038237348 -0.037163176 -0.03319812 -0.016659308 0.04078794 -0.038065363 0.0318066 -0.026570285 0.0028233416 0.048756566 0.006619908 -0.0063517205 -0.023002744 0.028671477 -0.037060417 0.04727873 -0.031854488 0.04283848 0.04355048 0.036628272 0.04177371 -0.008020509 0.032961283 0.02145091 -0.02929089 0.044064056 -0.028530538 -0.039443802 0.034128714 0.04993779 -0.028093576 -0.013672434 -0.047575664 0.03812447 0.0019893534 0.048185397 0.023905542 -0.022419393 0.026525322 0.025191236 0.03646226 -0.019569302 0.042061094 0.002327539 0.044502083 0.010490846 0.006886769 -0.013435759 -0.040884234 -0.009107731 -0.036377944 -0.04449109 -0.028920257 0.009565663 -0.015931796 0.022978034 0.007438384 0.007969033 0.030761566 0.02989978 -0.005461611 -0.004949607 0.044401232 -0.04285841 0.031343866 0.0024979934 -0.006695628 -0.035473157 0.030824903 -0.01647836 0.010762859 0.0012064576 0.012034737 -0.028967155 0.030986633 0.008363474 -0.005904101 -0.039190985 0.021136139 -0.029463088 -0.047411203 0.010848522 -0.041464925 0.025155414 0.049514238 -0.0068280473 0.011252679 -0.04657289 -0.032858573 -0.039679028 0.016681943 0.0336332 0.032914508 -0.031105245 0.014613461 0.03767636 -0.02011243 -0.00061454624
between -0.047697674 0.02438717 -0.0008383393 -0.024547756 0.040477406 0.018961873 0.0044644102 -0.02023064 0.024012271 -0.049523234 -0.041706383 0.013293687 0.036964405 -0.04830953 0.016959313 0.013704542 -0.035758864 -0.023563838 0.014597688 -0.04237285 0.038596574 -0.043228056 -0.014321588 -0.0003458485 0.037234094 0.028772388 -0.046898928 -0.022741033 0.044701222 -0.043585062 -0.01146736 -0.047098648 0.03070562 -0.0060070865 0.027863 0.035466004 0.03335199 0.0040676966 0.018891726 0.00862528 -0.0110860355 -0.023763848 -0.025430823 0.014419686 0.039811525 0.02715588 0.003658414 -0.0475775 0.04254962 0.034239937 0.017164502 -0.027689803 -0.023762418 0.049749207 0.0069849975 -0.04383693 -0.018366314 -0.049284767 -0.036060333 -0.048425376 0.022586036 -0.041763283 -0.00831648 0.0106185675 -0.038042795 0.026654873 0.025664676 -0.005425893 0.030267145 0.041147675 0.0073488466 0.018377755 0.02459884 0.009267081 -0.010875843 -0.035777114 -0.04941076 0.0023593083 -0.044122517 0.000652574 -0.006288551 0.005424835 -0.026062954 0.047387276 -0.017428182 0.028929297 -0.03847481 -0.014759373 0.018850718 0.016459372 0.017892528 -0.0031329505 0.03310697 0.042915072 -0.040871404 -0.00037244707 -0.019941224 -0.026518954 -0.03783685 -0.039702572
time -0.034520127 0.02293456 0.0392426 0.014593925 -0.038331233 -0.038992595 0.038069416 0.02902076 -0.045471467 -0.0268937 -0.003081251 0.02389567 -0.008203112 0.0190495 -0.008673847 -0.011089884 0.015177678 -0.015086222 -0.048552442 0.013890598 -0.02293154 0.0013212338 0.047919642 -0.019796241 0.013574842 -0.0425326 0.011463881 -0.02886945 -0.01507156 -0.031921256 0.033364896 0.022330735 0.048269484 -0.03834665 0.036783684 -0.012679197 0.048700895 0.008667696 0.034981538 -0.014567863 -0.030051662 -0.012601685 0.017205607 0.019715693 0.047090303 -0.011606358 0.01886909 -0.02773943 -0.00680957 0.04074942 -0.045657124 -0.03542336 -0.006988324 -0.044129897 -0.016156852 -0.006851267 0.008739244 -0.0006789081 -0.028003955 -0.042215407 -0.032048453 0.045469273 -0.019839918 -0.007001914 0.013408553 0.013153706 0.038735103 -0.041207027 -0.0037136786 0.023347083 0.021152172 0.033111338 0.0044047125 -0.01206851 0.037494514 -0.002697885 0.047204364 -0.00055327266 0.024485122 -0.029519094 -0.048269488 0.028699543 0.039201323 0.047470424 -0.04826888 0.04152825 -0.023426367 -0.014285028 -0.008529626 -0.034500204 0.0031221285 -0.03225266 0.033953775 0.047182295 -0.0037173256 -0.0070118196 0.01625606 -0.010039162 0.020326067 -0.046160698
serial -0.034380365 0.035538424 -0.04738587 0.04046352 -0.011978887 -0.027925814 -0.0054569244 -0.03690474 0.04758035 -0.030124212 0.03359652 0.033482622 0.002290666 -0.0064270273 -0.012895368 -0.00026597828 0.018599857 -0.048572194 -0.0343995 0.044478726 0.0074672475 -0.045290302 -0.013746478 0.014407698 0.0281302 0.008749235 0.042173002 0.017738048 -0.015713215 0.014295723 0.03699703 0.025060665 0.027947571 -0.0074535124 0.02842753 0.021107804 -0.026428377 -0.038667798 -0.01678412 -0.004693307 -0.0160558 0.011376418 -0.026028765 -0.049212147 0.034958687 0.010503113 -0.033193372 0.024717141 -0.042108048 0.027644504 0.017642807 -0.035918914 0.0059599057 -0.030126894 -0.042981196 0.041688334 0.024401654 0.039488863 -0.018121887 -0.034025863 0.015325118 0.01859368 -0.03051331 -0.043267895 -0.002416648 -0.030054117 -0.023491263 -0.018996943 -0.018203426 0.039947104 -0.013880063 -0.03295839 -0.032354847 0.008846927 0.0075393543 -0.020978559 0.021548819 -0.022705067 -0.025982678 -0.009681441 -0.038441874 -0.04591651 0.015477721 -0.016401052 0.039609138 0.010424696 0.037070367 0.04837166 0.0028308406 -0.04182913 0.049942445 -0.021933688 0.025400627 0.03983761 0.034043644 -0.026056921 -0.039078318 0.0051257014 0.0015527122 -0.040442716
interval -0.0037300363 0.033308353 -0.026183534 0.013903271 -0.013379108 -0.02612635 0.031526003 -0.034635328 0.048822846 0.023683999 -0.020512521 -0.0009176247 -0.028473616 0.018830542 0.0291734 -0.020290757 0.01451255 0.009881951 0.004659701 0.044369068 0.022596728 0.034498993 0.034020912 -0.045759525 -0.011248291 0.008358382 -0.025516689 0.014720235 0.04940151 -0.039934505 -0.042373743 0.030252073 -0.0009351745 -0.023446 -0.019230688 0.043037582 0.047769275 -0.0041532293 0.035720136 -0.00068212673 0.0055282116 0.04801167 0.023044001 -0.043341722 -0.041574657 -0.009155966 -0.028957142 -0.04412481 -0.028349472 -0.030669188 0.02639464 0.049760666 0.04274455 -0.020836974 -0.014905788 0.019702997 -0.03887875 -0.023352623 0.023521576 0.046982337 -0.034342967 -0.026762426 0.0112500675 0.031030547 0.04925183 0.04658288 -0.046774864 -0.01493416 -0.029483616 0.03578509 -0.019042028 0.016923297 -0.019680237 -0.01910509 -0.037296236 -0.017969668 0.013888348 -0.04475236 -0.02911297 0.008840583 -0.032512166 -0.036679912 0.048505295 0.0077803023 0.0214242 -0.024555339 0.0008963235 -0.046100676 0.044197712 -0.02724942 -0.027611589 0.01511253 0.036266614 0.0025741234 -0.034966268 0.00835377 -0.01930411 0.04996722 0.03894906 0.0034437291
than -0.04065319 -0.04272903 0.03974663 -0.015180588 0.0029825568 0.046963263 0.047943 -0.049855676 0.011213709 0.032482732 0.00949619 0.006261658 -0.013118017 0.008033324 0.049344752 0.029098716 -0.015400659 -0.008546747 -0.011676002 -0.043560207 0.029535439 -0.03694315 -0.020042777 0.012049388 -0.03064741 -0.044286754 -0.04459312 0.013641026 0.035745572 -0.033066653 0.0049300194 0.017177012 0.0128239505 0.03800794 -0.044746365 0.001234483 0.0064901486 -0.006955385 -0.0006564483 0.04557487 0.031648766 0.03981607 0.036690895 -0.00638441 -0.019211447 -0.016142357 0.04333553 0.001164496 0.019102935 0.01978736 0.008670498 -0.03180132 0.035241615 0.032090712 0.02966762 0.043274228 0.0116449 0.045376766 -0.02912922 -0.02950579 -0.019421149 -0.03160242 -0.04262661 -0.045500994 -0.011776913 0.042712662 -0.047858227 0.0190613 0.0032310262 -0.025376225 -0.0067252144 0.03367633 -0.031140566 -0.0014957786 0.030413736 0.020093035 -0.02290802 -0.038085498 0.014155891 0.0015822761 -0.039247833 -0.043054737 -0.041094027 -0.04354774 -0.028213931 -0.047326196 -0.021451438 0.021264698 0.029272769 0.031530585 0.011775326 -0.004710056 0.0063238963 0.024728488 0.043085758 0.027670395 -0.03254328 -0.024493396 -0.04354875 -0.040483393
be 0.008442722 -0.046952046 -0.0065240376 -0.021811534 0.035210017 -0.012294959 -0.025643563 0.046976063 -0.04496881 -0.04773135 0.003504634 -0.028424418 0.014050875 0.008749008 -0.023260271 -0.013788499 -0.014730405 -0.027593339 -0.027753329 0.024321448 -0.036521852 0.026395533 -0.049736526 -0.017692935 0.025537517 -0.049414705 -0.046228707 0.023318317 -0.001896821 0.041868757 0.029819343 -0.040565647 -0.01796608 0.04252744 -0.015592825 -0.042278826 -0.0062646493 -0.017273664 -0.0279104 0.04257414 0.030834284 0.045955125 0.022570875 -0.03121605 -0.0052354224 0.01641411 0.035127472 -0.045449924 -0.033823956 -0.029756749 0.0025481358 -0.01973337 -0.007874824 0.032829355 -0.013309695 -0.012559615 0.04300287 -0.023827387 0.045669902 -0.004239045 0.028349567 0.015811924 0.03549839 -0.016780593 0.011199355 -0.004055191 0.008040834 0.008422136 0.0041556843 -0.022382606 -0.026834667 0.014524911 -0.010197949 0.044955384 0.0327732 0.014311183 0.021682683 0.042739186 0.025124598 0.03465898 -0.010925543 -0.026471317 -0.010081042 0.045298304 -0.029627288 0.0043608323 -0.04089426 -0.024091303 0.021928106 -0.025742412 0.041477468 -0.0071298257 0.03443328 -0.00065886974 0.021507982 0.017831493 -0.03618593 0.026762191 -0.049061228 0.04650562
5 0.009527016 0.03076328 -0.015290596 -0.00014133379 0.014070246 0.04770695 -0.027233839 0.006939817 -0.038028013 -0.034315147 -0.024421979 -0.02330277 0.020607483 0.005929947 0.001052808 0.049749326 -0.010442995 0.040850487 0.00054553896 -0.015625764 0.003560625 -0.017263353 0.016321626 -0.011340715 0.02354442 -0.043788888 0.010934673 0.023183417 -0.021316959 0.04148643 0.009289645 0.026889969 -0.0066103227 -0.039751567 0.015625719 -0.013244677 0.03319252 -0.00076626614 -0.045302678 0.042292867 0.033692386 0.038029287 -0.023248374 0.014623392 0.013359118 -0.008552801 -0.007839311 -0.014872551 -0.043794513 -0.0069670677 -0.02892269 0.049822126 0.031128947 0.010490298 -0.0044081807 0.04462895 0.013791513 -0.042636003 -0.021400763 -0.01540909 0.016807068 0.041235734 0.037945237 -0.03832339 -0.0019125938 -0.031177735 -0.0417884 -0.006247949 -0.02018981 0.016366925 -0.03914907 -0.01654587 0.047559474 -0.041502513 -0.031014074 -0.020601273 -0.04914738 0.004152905 -0.04520185 -0.03783288 0.041793156 -0.010493137 0.008304693 0.04838157 -0.015702784 0.02197845 0.009519793 -0.013837136 0.028805915 -0.009117663 0.0015811101 -0.0056118853 0.021520067 -0.021692349 0.03310815 0.010994624 -0.019216431 -0.008818328 0.0051082745 -0.0179343
days 0.038304415 -0.041338883 -0.03550011 0.0374634 0.018963348 0.03272141 0.028251264 0.03973161 -0.036178697 0.020009343 0.024385218 0.04531527 -0.025851429 0.0021769293 -0.02244599 -0.0092494 -0.0008463636 0.030849468 0.025483225 -0.008027695 -0.017544247 -0.03147068 -0.048490595 0.021345366 -0.03619373 0.028006498 -0.018919183 -0.004932381 0.034860257 -0.032071844 -0.030528797 -0.040546346 0.036623623 -0.043710854 -0.009974994 -0.03139224 -0.015933275 -0.048487842 0.025130723 -0.042813372 0.0032848828 -0.04235835 -0.041473042 0.0048869625 -0.04672209 -0.03544451 -0.024248648 0.014727663 -0.013828136 0.04570364 -0.03925121 0.010986827 -0.040062763 -0.021492338 0.03836116 -0.0068973787 0.032515537 0.040881228 -0.01689104 -0.03963803 0.044824447 -0.048399437 -0.007906854 -0.036723517 -0.028653229 0.046883825 0.00019141287 0.0033397079 0.049681652 0.03588214 0.035839405 0.0038908012 0.015917066 0.03703067 -0.015149225 -0.016396176 0.04872949 0.044628654 -0.008192301 0.015606526 0.025878776 0.0464242 -0.048438847 0.012792889 0.0028073676 0.032271054 -0.040953945 0.008186769 0.014473703 0.010887146 0.038117398 0.001734972 0.04174247 0.048704494 0.017713595 0.01478089 0.038839344 0.025312606 -0.013770651 -0.0028754957
are 0.041610155 -0.0039217584 -0.023047173 -0.04928384 -0.027322996 -0.043373812 -0.02669859 -0.0093535185 0.013457272 0.025678251 0.02526537 -0.042620003 -0.025822341 0.0017883666 -0.011221994 -0.047813393 -0.011990845 -0.029527092 0.0034585707 0.012506548 0.049167287 -0.03281319 0.0068059675 -0.011615943 0.011307456 -0.021801485 -0.04140799 -0.005844008 0.010930169 -0.0477813 0.031918254 -0.0065995455 -0.049190667 -0.03000052 -0.012673248 0.042828206 -0.016363751 0.03348798 -0.04856198 -0.007342778 -0.028461505 -0.048149552 -0.014713477 -0.044719126 -0.011621129 -0.019588007 -0.02214253 -0.010306727 0.042692494 0.02125765 0.030865613 -0.04509921 -0.03283687 -0.03379216 0.047399048 -0.005585693 0.012605336 0.006234564 -0.02241609 -0.04673722 0.036525954 -0.03716904 -0.030375196 0.02543844 -0.030754222 -0.0017281771 0.038488958 0.0077735074 -0.034775723 0.026593853 0.034622166 0.02208979 -0.014562953 -0.009643592 -0.032167457 0.0028636083 0.012307443 -0.018096019 0.00578586 0.013478968 0.0016936287 0.0012666471 0.024897758 0.03404328 -0.038041294 0.046888355 -0.04037372 0.0038458928 -0.042822074 -0.032341734 0.016739454 0.02623241 -0.0020164251 0.031144965 0.0065550692 0.019847903 -0.011696421 0.024974857 -0.032474495 0.044089902
viruses 0.0062222965 -0.043860365 0.0093101375 -0.033537973 -0.030819928 -0.0009777918 -0.0047438256 -0.0137953535 -0.0020246394 0.031071853 -0.042813122 0.02771585 0.048574056 -0.028144622 -0.006485652 -0.047822632 0.031073105 0.030193795 -0.043321706 -0.00059686974 0.02524798 -0.0373474 -0.0076493137 -0.047977198 0.006226491 -0.04339695 -0.011654068 -0.01103922 0.049106184 -0.024801422 -0.015249144 -0.008139979 0.040177416 -0.040005885 0.047336545 -0.0053191893 -0.021250522 0.032626893 -0.02469225 -0.027097166 0.034805883 -0.006838333 0.04115064 0.01828679 0.043398026 0.046630684 -0.005155407 0.014538933 0.01314402 0.017994594 0.015668858 -0.03590536 0.022794452 0.03821859 0.018157098 -0.0022764578 -0.049581982 0.008659519 -0.008096922 0.02230971 0.012076486 -0.04061874 -0.041887067 -0.04937781 0.035920803 0.040703427 -0.042498004 -0.03355185 0.013235573 0.015681352 -0.037411906 0.04916283 -0.01417309 0.025810089 0.04869579 0.0137179755 -0.047998846 -0.039228927 -0.042560864 0.016839292 0.019902114 0.015896235 -0.027657067 -0.04073292 0.042526904 0.031003762 -0.03932655 0.033789042 0.026109759 0.018801603 -0.038068186 -0.011963259 0.042665605 -0.008055948 -0.031635392 0.04667301 0.041186396 -0.047510017 0.018273603 0.041784693
shorter -0.009024106 0.0069935806 0.020997416 0.045246515 0.013928447 0.04605465 0.040176596 -0.04571084 -0.04358661 -0.026028026 0.02462418 -0.044611048 0.043289293 -0.010177873 -0.040754806 0.01971865 0.030609932 0.033775155 0.032930646 0.04599488 0.011449445 -0.046289146 0.00087650865 0.0325869 -0.0022977479 0.0358889 -0.03187883 -0.016263295 0.016027596 -0.041215144 0.04829851 -0.028402686 -0.0311926 -0.018059574 -0.0111504905 -0.010483466 -0.032617293 0.025013912 0.041634355 -0.047894932 -0.024672782 -0.012900375 0.013681296 0.033804428 0.047914315 0.0012225993 0.0071197264 0.013004068 -0.028909374 0.020717237 -0.028998053 0.0020892844 -0.027386343 0.04374964 -0.03806778 -0.0016839616 -0.038170993 0.048091475 0.0061146617 -0.023264373 0.034931127 0.0021197796 0.028128479 -0.04861269 -0.013747491 -0.0032199249 -0.03362131 0.024415422 -0.013541244 -0.028262962 0.0004810579 -0.005760718 -0.012033142 -0.048427295 0.0054097883 0.0035714507 -0.006504871 -0.010276079 0.025549982 -0.02753967 -0.023248017 0.040973965 -0.021797037 0.012613658 -0.0050645247 0.029791776 -0.016248442 -0.04937264 0.032620702 -0.012078069 0.04315484 0.03764591 0.0014978535 -0.04810357 0.022691075 -0.011419356 -0.032765318 -0.002364885 0.02748442 -0.047041714
from -0.0035223365 0.029557835 0.044230428 -0.047754146 0.031110372 0.020119432 -0.046902027 -0.03640629 -0.02174964 -0.038761258 0.03005201 0.014543001 0.038656916 0.036984686 -0.0124903545 0.011483848 -0.026061535 -0.0009161718 -0.010950543 -0.031250775 -0.033690654 0.012141846 -0.016528465 0.0037835017 0.041495476 0.02424078 0.026820447 -0.03155277 0.0066163763 -0.016207766 0.020750191 0.016457561 -0.04463805 -0.018058442 -0.0034521334 -0.04808862 -0.010529172 -0.047011327 -0.045844544 -0.02534858 0.012816478 0.025124881 -0.040796377 0.030452263 -0.025046004 -0.002995681 0.033570077 -0.008745026 0.045389626 0.022592973 -0.0032658353 0.014945138 -0.046545662 -0.044877958 0.030786011 0.005076349 0.036692146 0.011029601 0.021924023 -0.025363732 0.016938638 0.04216135 0.026950303 0.011369217 0.013698641 0.04255979 0.037232604 -0.038388263 0.03919022 0.0016177781 -0.046545662 -0.009325217 0.042924885 -0.03851738 -0.028533638 0.049397733 0.04672799 -0.029155482 0.03506397 0.010855615 0.026702773 0.022563245 0.045328844 0.0008410923 0.019466702 -0.043766428 -0.04236417 -0.028915728 0.045249213 -0.042194247 0.049670603 0.019199502 -0.024702085 0.029981624 -0.0079629645 -0.00617845 -0.024409771 0.015077617 -0.021368409 -0.008943867
appearance 0.030685212 -0.03035872 -0.030865014 -0.00504414 -0.011895239 -0.019801749 0.013599876 -0.03568814 -0.015268195 0.048215304 -0.046843745 -0.025119364 0.030575637 0.016169135 -0.00469606 0.039222766 -0.010727346 0.043812845 -0.019782687 -0.018333174 -0.017599035 0.028715897 -0.0013948455 -0.0073059797 -0.037307404 -0.04083266 -0.037281297 -0.017620753 -0.02374419 0.017542746 -0.044306554 0.03361653 0.032047655 0.021652069 -0.0033205152 -0.046184182 0.043077018 0.017218936 -0.0093868 0.020513799 -0.0139481425 0.034106757 0.0023157112 0.008899104 0.000966955 -0.01380422 0.0035715103 -0.03815522 0.0014134273 0.029156711 0.013244484 -0.027963424 0.037546303 0.021983925 -0.042336415 0.017646883 0.0077832453 0.008823596 -0.03397038 0.039129224 0.029849913 -0.016744949 0.024229337 -0.038148355 0.004794907 0.01347046 0.036676917 -0.024032522 0.02979226 0.0033913031 0.01568525 -0.018103052 0.008182906 -0.04785893 -0.009582959 0.002593495 0.04426751 0.009320427 -0.0014545098 -0.044421244 0.033072617 0.037049245 -0.025878524 -0.020893931 -0.033171237 -0.0042959563 -0.0014679432 -0.007941615 -0.02780552 -0.030799687 0.015002254 0.020028029 0.023696389 -0.01257373 0.0037287474 -0.00014698505 0.036674608 -0.04408839 -0.037170865 0.039062727
symptoms -0.024496794 -0.0060197003 -0.02366376 -0.0038086548 0.026284587 0.027410317 0.041721668 0.03718089 0.037429247 0.04685848 0.021331634 0.023493532 -0.03027661 0.034754563 0.0016758218 0.042314198 -0.046911668 -0.030360913 0.033077214 0.032784257 0.02883986 0.026029099 0.024482083 0.020202588 0.041709233 -0.02470894 0.04556639 -0.0018060096 -0.03242878 0.04899091 0.0140228905 0.035522547 -0.007831216 0.02331357 0.019939993 0.0154307 -0.000100158155 0.03892139 0.001539506 0.03472985 -0.011528421 -0.025097704 0.0016546249 0.044401955 0.031297337 0.04300921 0.027809989 0.009753335 -0.04604416 -0.0055738315 -0.0045322776 -0.0126845725 -0.023163928 0.027100515 0.020376775 0.037750553 -0.029348481 0.026907038 -0.0033642873 -0.046517957 0.043682363 0.024056125 0.0132317655 0.029550914 -0.039587952 0.006358087 0.04995377 0.025932971 -0.021236146 -0.027705407 0.038577605 -0.01325351 -0.042682588 -0.014712881 -0.0014819615 0.009270012 0.030249331 -0.038252734 0.0025436878 0.002887331 0.016773392 0.022171307 -0.030359363 0.046753157 -0.017929137 -0.04179431 0.030070689 -0.022489166 0.034936015 -0.039913736 0.048467886 0.044982914 0.026086163 -0.0056146495 0.04176039 0.025702689 0.014261451 0.047420826 -0.047338285 -0.03939276
while -0.009942137 0.015047323 0.02244142 0.011368107 0.025214162 0.009205531 -0.026275432 0.04848286 0.012170292 0.0117461905 -0.044895817 0.0417887 0.00015603378 -0.042781997 -0.03387909 0.0104599 -0.048665203 0.0060732476 -0.004553102 0.015778039 -0.046331048 0.037889633 -0.030771887 -0.00861796 -0.033584252 0.046978775 0.03964888 0.017595958 -0.044318736 0.030508664 -0.045809817 -0.048084904 0.027297508 0.029303197 0.03388918 0.03204072 0.037747692 0.028015327 -0.010502636 -0.049252417 0.020400811 0.04409789 -0.0077818036 -0.007617783 0.0132451765 0.007828105 0.049353708 -0.02019055 -0.017671216 0.0378719 -0.0051997527 -0.034291208 -0.0038516745 0.012016594 0.010267783 -0.04057137 0.02773131 -0.01924473 -0.045251835 0.038305987 0.0022761934 0.048049334 -0.013812661 0.006681919 0.042400647 -0.035148572 -0.021259738 -0.048796546 0.024217252 0.014961075 0.047741238 0.037080374 -0.0017738454 0.027334575 -0.00969062 0.030278277 -0.00508672 0.044082794 0.0067359097 -0.027400434 -0.03981342 0.02834541 -0.02009176 0.012564611 0.010533772 0.00694678 -0.042823672 0.045874786 -0.010177743 -0.0030529276 0.045288686 0.0018385872 0.020455431 -0.022864068 0.047342125 -0.030984854 0.028191235 0.02432393 -0.008324362 -0.015548099
3 0.0021646395 -0.040753316 0.0014065877 0.014939476 -0.04270903 0.022526253 0.04060464 0.015255813 -0.010787141 -0.017728854 0.04186404 -0.04438163 -0.000289917 0.014772143 0.034202542 0.0127685405 0.047802653 0.04277313 0.040818784 0.0051985383 -0.00041153282 -0.0015401468 0.024470996 0.044125546 -0.0101049915 0.041724253 -0.00015055016 -0.046835124 0.007598676 0.042277347 -0.014795385 0.005091656 0.0048408136 0.021595027 0.009785913 0.043112244 -0.0339605 0.002717603 0.033222068 -0.009773742 -0.04729079 -0.048462953 -0.024403548 -0.039720714 -0.046416152 -0.023990083 -0.020629847 -0.005027078 -0.016911604 0.022255365 -0.003584385 -0.013593387 -0.014829554 0.023919616 -0.03756907 0.028669622 -0.019138157 -0.0061961636 0.027657721 -0.008253716 0.037353825 -0.01800289 -0.005100798 -0.019353284 0.014182869 -0.037556387 -0.001829885 0.0024489388 0.015600216 0.049124155 0.003340792 0.0430401 -0.02750199 -0.020591283 0.043964233 -0.03264593 -0.03939264 -0.015360106 -0.016607463 0.014085639 0.008285653 0.021907356 0.010090459 -0.007457126 0.027700517 -0.02174741 -0.004883647 -0.041011237 -0.024877502 -0.045649935 -0.045432616 -0.028710235 0.021620002 0.003497433 -0.04825864 0.038280655 -0.01376009 0.024042752 -0.026479805 -0.0059588067
this 0.03543018 -0.0044377446 0.020007703 0.001247596 0.024160337 -0.035303127 0.0064066537 0.035365496 0.0042933337 -0.0055101514 0.007117592 -0.01080668 -0.0016043186 0.0186803 -0.047806706 0.04882394 -0.034878217 -0.036020614 0.042425934 0.036532614 -0.01340159 0.0036959872 0.008681677 0.018924665 -0.0088034645 0.016357567 0.011746906 0.026975285 -0.0110457055 0.002063524 -0.038697086 0.023226012 -0.04770837 -0.035843216 -0.027545584 -0.023517704 -0.010150112 -0.008314528 -0.010023296 -0.01163733 -0.045900036 -0.049096275 0.03950287 -0.009293903 -0.020099258 0.017743241 -0.041989148 0.03691422 -0.00037925318 -0.043366756 0.03993647 0.029251706 -0.03543935 -0.04260185 0.030750003 -0.03918519 -0.03936418 0.00016403198 -0.0090992935 -0.033603504 -0.026691914 0.030496668 0.005379416 0.045399223 0.0154305585 0.036111142 -0.033333436 -0.038529087 0.005097758 0.032364715 0.017405938 -0.04109175 -0.049526013 -0.02359203 -0.026248707 0.0015780926 -0.01183809 0.037177194 0.00021485239 -0.024283731 -0.02616117 -0.007342886 -0.019187748 0.048775602 0.012728427 0.016254377 0.022689212 0.015009973 -0.0053228363 0.033555437 -0.010349572 -0.01466025 -0.020548154 -0.04797721 0.026124824 -0.006284632 -0.03222134 0.019325625 0.02474055 0.009935498
that 0.007027246 0.04423249 -0.009566296 0.042194966 -0.039205898 0.043296564 0.011544488 0.03311703 0.010630846 0.027963568 -0.042682875 -0.01106254 -0.041354347 -0.0084229 -0.03290342 0.031300437 -0.038782775 -0.039572917 -0.026018906 0.03155842 -0.0018450841 0.008772004 -0.041259088 -0.0110448 0.00016846508 0.0055480003 0.021913026 0.019967247 -0.0034638643 -0.021306813 -0.0438524 -0.02314881 -0.030499352 0.038146023 -0.03997587 0.016850676 -0.026662707 -0.037985943 0.04177295 0.027054336 -0.0014159791 -0.033556364 -0.012939058 -0.025531197 -0.029723013 0.015028942 -0.012101628 0.026398275 0.045679417 0.038462628 0.03220923 0.031467486 0.047434878 -0.03913319 -0.022926306 -0.000119149685 -0.014324404 -0.03142681 -0.0153461695 -0.0079428665 -0.015057385 -0.025463713 0.04458772 -0.014508627 -0.0018760674 0.037070703 -0.04234934 -0.024931658 0.008151043 0.0022929683 0.0408378 0.04400224 -0.03220904 -0.038810097 0.0065132603 -0.0034035072 0.013318192 0.0033633225 0.032593917 -0.009101413 -0.010132693 -0.011002921 0.03581771 0.02948108 -0.029154731 0.00020868704 -0.0052523017 -0.040113498 -0.0037302002 -0.042608168 0.03510243 0.04097711 0.0074580684 0.02890614 0.025817405 0.020679321 0.020177115 -0.045468774 0.048819635 -0.027993262
can -0.0016940124 -0.02984866 -0.036003042 0.0088688135 -0.049902596 0.017021809 0.029082384 -0.045700382 -0.025791181 -0.01634004 0.020063903 0.004700709 -0.043431975 0.048164453 0.026240263 -0.036353935 0.04292698 0.037861917 0.028116394 0.04778493 -0.010264169 0.006862033 -0.026217116 -0.031869017 -0.04601661 0.017061401 0.040041212 0.027611148 -0.03774345 -0.016657759 0.017744157 0.03080291 -0.030221714 -0.027264167 -0.032909025 0.029624354 -0.027733028 0.0020834208 0.04989102 0.048317377 -0.0060959235 -0.0027911887 0.046809267 -0.005447887 0.0035757534 0.029882718 -0.029401422 -0.029982245 0.015737776 -0.0334543 -0.036588274 0.04962716 0.006672941 0.018455934 0.04668757 -0.009783529 0.03034145 -0.018546127 -0.03971068 -0.04288205 -0.014499057 -0.048352063 0.015999202 0.0012500659 -0.0010871403 0.010274183 -0.008518528 -0.04348694 -0.026960362 -0.005770862 0.026729356 -0.006618429 0.03265934 0.049487796 -0.03930707 0.023392152 -0.019490981 0.043932524 -0.017292488 0.03904612 -0.0010605827 0.047244016 -0.0065463074 0.009620763 -0.03274878 -0.0052603595 -0.0009323135 0.0045365095 -0.0046540387 0.012355007 0.030593004 0.011866413 0.015802253 0.01424687 -0.032200206 -0.022238731 -0.04656533 0.026023034 -0.040870763 0.010578584
in -0.016771425 -0.03764398 0.033419196 -0.034139015 -0.010820545 -0.013299622 -0.043256164 0.013555732 -0.032269992 -0.034877528 0.011651982 0.04099704 -0.0023676865 0.028515723 0.021337036 -0.0137452 0.00084187835 -0.007214941 -0.0035651438 0.0140069835 0.03696393 0.010333143 -0.025286341 0.0066683404 0.022166524 0.04579672 0.016284313 -0.00018954277 -0.001609873 0.00821054 -0.029016972 0.0407097 0.005447127 0.03155526 0.042831603 0.032944884 0.013125371 -0.018066656 0.0024087206 0.0091943145 0.009594608 0.048361305 0.022581901 0.020822119 -0.0022168644 0.023755018 -0.049229253 0.026414644 0.0036828145 -0.027352775 0.0044121146 0.009269141 -0.042934157 0.009671725 -0.04792719 0.01970369 -0.009332679 -0.005112041 -0.025421416 -0.0068486333 0.04024447 0.040184204 -0.01080855 -0.04025961 -0.009317052 0.045433972 0.048323955 -0.022706425 0.022436325 -0.019841468 -0.03404342 -0.035058748 -0.025026476 0.035629068 -0.0051058754 -0.012945604 -0.008955441 -0.04041811 -0.020416975 -0.030986523 -0.039637804 -0.005344916 -0.029704226 -0.0015195012 0.009116102 -0.024888946 0.0029021278 -0.0011872426 0.029114868 0.009505548 0.037242685 0.027826201 0.020385075 -0.010193087 -0.0117322095 -0.024618221 0.01723731 -0.008821081 0.02004243 0.04998361
major -0.03842155 0.041610565 0.016834844 -0.0060521252 0.025057282 0.024646532 0.03488474 -0.023806144 0.012710381 0.037475657 -0.013947032 0.039917696 -0.024491156 -0.018033016 -0.006393183 -0.039361797 0.042346206 0.04294162 -0.007549919 -0.031882633 0.026942898 -0.011678375 0.0029402748 0.034555558 -0.006589163 -0.009712707 -0.0070219263 0.0030096658 -0.010473765 0.00067775324 0.043392006 -0.012436748 0.017266516 -0.032552622 0.0023419373 -0.03574003 -0.046594966 0.04539344 -0.022092069 -0.029064262 0.012763407 0.00515021 0.01595844 -0.033010855 -0.0010304339 -0.034307018 -0.011651825 -0.02513038 -0.009592615 0.030006956 -0.017822407 -0.010204576 -0.0351272 0.00854497 0.010979317 -0.023934258 -0.005977571 0.030170027 -0.007802941 -0.017836202 -0.03806455 -0.043151926 0.04596151 -0.018873155 -0.02175858 -0.04558493 -0.03812032 -0.04398897 -0.028726304 -0.010532271 -0.02846464 0.015784074 -0.0066480637 -0.016689979 -0.02779088 -0.014894795 -0.012871087 0.041414272 0.043330442 0.023745965 0.026894037 -0.012397815 -0.019718682 -0.013939429 0.048316184 -0.027735626 0.0065298565 0.040108357 -0.04762298 -0.048847973 0.0005475506 -0.016062964 -0.01995734 -0.004556548 -0.024504412 -0.029490435 -0.010541618 -0.025682962 0.037975322 -0.012984097
driver -0.023269212 -0.012151182 0.018552724 0.0044062957 0.03901292 -0.0367319 0.042818252 -0.04000119 0.008663736 0.021239925 -0.024713421 0.031700145 -0.018623866 -0.025899624 0.021451239 -0.0008513443 -0.028734459 -0.02808087 0.025584731 0.03524116 0.046742868 -0.035846375 0.02078161 0.024051849 -0.010603201 0.041998792 -0.034146905 -0.02952217 -0.045863368 0.04391286 0.027434554 0.025581721 0.023636315 -0.042861857 0.03648052 0.03267696 0.009854149 0.04550847 -0.008144438 -0.02123406 -0.01590874 -0.04953252 0.02920277 -0.022545172 0.04963297 -0.03346248 -0.02867446 -0.013074733 -0.00029429048 0.03994484 0.027991641 -0.010624122 0.04199547 0.011437811 -0.04324169 -0.02017485 0.0036350116 0.0072920434 0.02997071 0.019141044 0.0444376 0.038707484 0.04891442 0.018299285 -0.044316567 0.025187198 -0.029849553 -0.023327792 0.02443451 0.034486625 0.020150136 -0.033938125 -0.0055187345 0.010209572 -0.043359485 -0.019024301 -0.03992323 -0.02614057 -0.017768215 -0.0048038587 -0.026759624 0.0005239025 -0.03607464 0.0073291883 0.027169231 0.012891915 0.02121817 0.021916833 0.020822678 0.004819382 0.030351881 -0.03804965 -0.0428301 0.035582934 -0.029945767 -0.002281379 -0.018552542 0.045529697 0.037637543 -0.017072536
number -0.016274739 0.011618555 -0.023011183 -0.03011831 -0.016027845 -0.034552753 -0.046317782 -0.023886537 -0.019252313 -0.009354234 0.03069606 0.034379255 0.026486289 0.00037276745 -0.035832904 -0.0074639544 -0.020304894 0.0011563897 0.006123733 0.041434992 0.041159656 0.012850199 0.03943156 0.03017411 -0.006760396 -0.014034521 0.03219856 0.024946917 -0.025112713 0.0363704 -0.018900096 0.029317092 0.018965159 -0.046508517 0.01110195 0.007388927 0.0016073808 0.031106714 -0.014024891 -0.03963245 0.04734793 -0.018905628 -0.020803547 -0.0013222322 -0.005325161 0.036206093 -0.009214558 0.03792203 0.0011166446 -0.0015580431 0.031072367 -0.035750102 -0.046808887 -0.017486382 0.025226463 -0.02928102 0.047910143 -0.0012192354 -0.035677742 -0.022520496 -0.026042163 0.035939243 -0.042090856 0.013115514 0.019016985 -0.03764856 0.049757566 0.020907287 -0.011034809 -0.012557842 0.045361307 0.047637533 -0.029398823 -0.033558287 -0.01362728 0.042415787 -0.027224267 0.03801957 -0.037264634 -0.03494847 -0.019286668 -0.029940903 -0.007961772 -0.0058347583 0.033097256 -0.025493348 -0.02176156 0.018109117 -0.0059892423 0.049944017 0.04836713 0.015593912 -0.016867958 -0.032929264 0.030664269 0.039511252 -0.03174814 -0.02828579 0.0499948 0.034399237
2 0.030052755 -0.048451852 0.04385866 0.0068835393 0.03465495 -0.024857914 -0.024435652 -0.01618155 -0.048772812 -0.008302759 0.016883265 -0.04932752 0.015420768 -0.044194985 0.0004934445 0.02843428 -0.034941126 0.019270767 0.010675333 0.0096311085 0.02798308 0.046734307 0.024159681 -0.014459349 0.017294113 -0.040667273 -0.02813573 -0.017216444 -0.028960848 0.031416427 -0.03178952 0.0032379627 -0.0027882345 -0.038562942 0.018691111 -0.007863842 0.012818102 0.007053353 0.03423104 -0.016415633 -0.04111748 0.0016048327 0.033513274 -0.009109665 -0.048435904 0.0065194853 0.024443556 0.037175383 0.03491236 -0.032774724 -0.015524901 -0.032748282 0.0075779557 0.0039647 0.04831035 0.02754153 -0.042080976 -0.003448438 -0.012266409 -0.036821067 -0.009525586 0.011517644 -0.024662126 0.022483025 -0.0038566478 -0.025635898 0.0008752234 0.012159608 0.045104515 0.030128215 -0.012674533 -0.025156831 0.00482459 0.03254663 -0.0026798472 0.032311488 0.044393007 -0.0045575127 0.0008550659 0.005089868 0.04920205 0.021872435 -0.018791819 -0.033651732 0.0107245445 0.012541834 -0.00010061264 0.04274385 0.03343839 -0.029413247 -0.0071206465 -0.017904151 -0.0059487335 0.035776388 0.015038278 -0.013003014 -0.014117181 0.0057811625 0.0011638291 -0.018219281
speed 0.009991489 0.03490224 -0.019036401 -0.02340641 0.02272698 -0.0013635755 -0.0084702745 0.042185474 0.034244943 -0.032929756 0.04296461 -0.013425089 0.011390269 0.01831204 -0.0031323917 -0.01302867 -0.03301059 0.0024117231 0.016141739 -0.044940997 0.032090727 0.0123047605 0.04359642 0.011996221 0.0394339 0.048155937 0.030471493 0.04551779 0.03962333 0.0027214661 0.0014408603 -0.007604491 0.03844222 0.003321588 -0.035463892 0.014031086 -0.007865857 0.005984951 0.006242715 0.017177735 0.025018636 0.00278797 0.04239757 -0.033102654 -0.015247952 -0.02128954 0.012808289 0.02895004 0.0010976195 -0.013322569 -0.018894328 0.04637407 -0.0018951669 0.019485746 0.0056417957 0.025208365 -0.008096039 -0.03563223 -0.023862911 0.009203244 -0.0034971237 0.0037429817 0.0021909587 -0.0092641115 0.008283831 -0.022334779 -0.013440132 0.043030273 -0.020528674 -5.35734e-05 -0.00038632005 -0.012045372 -0.046004165 0.01588234 -0.032591596 -0.029295469 -0.03444495 -0.009283662 -0.03873557 0.016973767 -0.026875569 -0.041957915 -0.037659954 0.04726651 0.01793212 -0.023404075 -0.0027588978 -0.015758969 -0.020946039 -0.0369666 -0.047291186 0.029730748 -0.04189087 -0.043345895 0.0060455427 0.0097209215 -0.01993891 0.024256062 0.03509632 -0.011542153
an -0.00023309141 -0.039460253 -0.018027544 0.044697333 -0.03259473 -0.032866646 -0.015730582 0.0033354983 -0.045251597 0.036637556 -0.046757974 -0.03215307 -0.035165645 -0.021830631 -0.034345187 0.036070827 -0.039281487 -0.026687456 -0.031093884 0.0345436 0.009998821 0.023490932 0.038860742 -0.008424055 -0.0022940747 0.04061873 -0.018582236 -0.036661375 0.046330024 0.006154895 0.018502306 0.04743493 -0.019272435 -0.017297365 -0.010657586 -0.028541958 -0.006879188 0.0066290125 -0.027369082 0.037388477 0.010538258 -0.030959785 0.012752842 -0.042695668 -0.012050748 -0.049500167 -0.018870497 -0.048606183 -0.033387803 -0.025060475 0.040583078 0.015844073 -0.033760358 -0.016058277 -0.040980794 -0.031769563 0.035505388 -0.034983944 0.016830716 -0.0494848 -0.007899143 -0.04551592 0.02406719 -0.028104926 -0.009621907 -0.0023476481 -0.03479891 0.022949684 -0.0336357 0.030288626 0.033095147 0.049684536 0.026817407 -0.03787992 -0.013207663 -0.02700671 -0.042634357 0.04372013 0.0331592 -0.015259348 0.0022752397 -0.03723358 -0.0078078285 -0.013370812 0.034965146 0.030595277 -0.023910595 -0.014369249 -0.03551061 -0.025469804 0.047360074 -0.024247099 0.048708227 0.0061194673 -0.047018778 -0.033217836 -0.047232606 0.046618972 0.041035723 -0.036437143
important -0.026151597 0.031143632 0.025210429 0.035865676 0.0412074 0.031688977 0.040820245 -0.0071580037 0.021066677 -0.04250436 -0.009657968 0.012829293 -0.028412128 -0.025158811 -0.011736989 -0.03069408 0.043818925 -0.0042124987 0.049804714 0.044156674 0.009925567 -0.03277 -0.03785541 0.005803801 -0.025420977 0.048771743 -0.021748913 -0.037301373 -0.03246039 0.033429597 0.01601385 0.036221933 0.010962974 0.031702723 0.049571183 -0.045235325 0.037726093 -0.015069723 -0.013206802 0.037349667 -0.015994202 0.026258204 0.010496128 0.028167669 0.013558868 -0.0009923093 0.035758708 -0.0019705668 0.042505447 0.038772527 -0.011332296 -0.02866484 -0.0027731657 0.02407619 -0.023773242 -0.008366562 -0.034136295 0.01736604 0.027492594 0.02452362 -0.009594571 -0.039150916 -0.023817122 0.009280406 0.042318884 -0.007349573 0.021028224 -0.017311908 0.026312951 -0.030941391 -0.03429687 0.015669 0.0006625764 -0.015376292 -0.041031957 0.024078574 0.036495212 -0.021540118 0.03086244 0.041193333 0.03589317 -0.044935822 -0.020682944 -0.011167847 0.009195935 0.035840336 -0.0149620995 -0.043477118 -0.044715073 0.008420229 -0.008398045 -0.049557425 0.03145423 -0.033720158 0.011938095 0.008514322 0.003065776 0.023795594 0.020910408 0.03843553
point -0.022933079 0.010394432 -0.04543493 0.0009526834 0.039192703 0.0274675 -0.027122939 0.039761197 0.0086477995 -0.0035981536 0.03339896 -0.027760684 0.0074681416 0.016006064 0.023394097 -0.02399589 0.002932012 0.0070686713 0.033821527 -0.046407986 -0.025871133 -0.049545813 -0.03293165 0.042606782 -0.018978978 0.0034801848 -0.023547387 0.030611996 0.046257343 -0.033547476 -0.004638411 0.029332984 0.03387657 -0.0033095255 -0.035826076 0.03749503 0.044422615 0.026031245 0.017269243 -0.010757484 -0.0006012805 -0.04385519 -0.003982246 -0.009763956 -0.038560428 0.044479202 0.014804412 -0.044734623 -0.011976648 -0.015527952 0.03153194 -0.035298776 0.0018896833 0.013249721 0.016301464 0.037019495 0.046856735 0.033715103 -0.020992387 -0.039418936 0.040129606 -0.02489978 0.0137791075 0.03539214 -0.023716247 -0.023334444 0.02076817 -0.04827428 -0.028602589 0.037431788 0.01445109 -0.03326179 0.027501944 -0.043711495 -0.032306124 0.025347743 0.0141523 -0.02404151 0.022887181 -0.02749747 0.024728362 -0.039531983 0.0024555922 0.034540538 0.03987998 0.02687538 -0.044942666 -0.014555085 -0.004819192 -0.0360206 0.0012710206 -8.34465e-07 -0.043565262 -0.032551087 -0.019992758 0.03977556 -0.0016003959 0.027922783 -0.04248437 -0.0023955107
difference 0.01469842 0.01834241 0.02629013 0.003919445 -0.02190547 -0.0052851215 0.043134812 0.036567237 0.025053967 0.005313348 0.025978733 -0.040384375 0.025976826 -0.043548036 -0.012425542 0.010445464 0.022083614 -0.012859069 -0.029772198 0.044864025 -0.0074127316 -0.0050049424 0.04949877 -0.04971222 0.013641942 0.0074658617 0.010576557 -0.02481097 -0.0015229806 -0.03636595 -0.032491945 -0.007265888 -0.032362092 -0.046892762 -0.033716787 -0.008547772 -0.018207658 0.046429876 0.023584548 -0.0068057775 0.047376823 0.024649952 0.022714067 -0.006990779 0.0074066035 -0.02517047 -0.046074536 -0.008693792 0.049202967 -0.020020068 -0.0016072169 -0.022770012 -0.03305763 -0.0076915026 0.04775841 0.028049719 0.02886727 0.04402267 0.00066972896 0.033901777 -0.03280561 -0.048001338 -0.042858947 -0.035534464 0.030926358 -0.028102685 0.009101141 -0.027737463 -0.017002262 0.022807863 -0.005144704 -0.04824963 0.0031567328 -0.027391458 0.039314236 0.009878207 -0.025378156 -0.0060235746 -0.028146958 -0.049165558 -0.014755391 0.03330752 0.0042110793 -0.0059548244 -0.013771843 -0.033685945 0.0404081 0.037629668 -0.024128426 0.04557706 0.007162191 -0.00056312233 0.013565723 0.030245963 -0.004490841 0.04516763 -0.047203112 0.049603555 0.007122267 -0.023821438
two 0.019799974 0.04591674 0.003911279 0.038257573 0.017405514 0.008799959 -0.040765367 0.020081308 -0.028917266 0.027515959 0.018816102 -0.042651046 -0.02064017 -0.04071491 0.008067202 -0.027159667 -0.023030175 0.015767563 -0.04274428 0.009365976 0.0077057704 -0.033999123 0.04818589 -0.00019131973 0.03689767 -0.04040115 0.001147151 0.016768541 0.005435597 -0.018928457 0.039985094 -0.008099269 -0.016500901 -0.027012516 0.021621753 0.031673763 0.041169 -0.03562864 0.01627734 -0.03112395 -0.03700869 0.010818612 -0.0014117472 0.013881113 0.034365546 0.03086925 -0.008003674 -0.020250726 0.01032114 -0.041811608 -0.035746716 -0.028278733 -0.015624404 0.032470036 -0.021107806 -0.011335183 0.04733253 0.028708767 0.018896487 -0.040870022 0.010864593 -0.02252276 0.026915107 0.02285644 -0.033470236 -0.039767217 -0.019284844 0.025360059 0.04985467 0.017904405 -0.021854818 -0.013536859 0.013618495 0.012696218 0.028212953 0.009232212 -0.028532004 0.014171097 0.04282124 -0.038707137 0.020669747 0.017148588 0.020941485 0.029082213 -0.03648331 0.028898302 0.0111992955 -0.026420975 0.04317892 0.025619414 -0.031330585 -0.0074384585 0.029230367 -0.031646837 -0.04837774 0.038258646 0.039650057 -0.003783904 0.04449365 -0.0017498955
has 0.017644886 -0.019694364 -0.005649578 -0.011738718 -0.04948919 -0.015974116 0.012632895 -0.036454223 -0.008863043 0.007861625 -0.036165915 -0.0034831278 0.019255225 0.018007908 -0.046657335 -0.015015852 -0.00446688 -0.016441334 -0.021670712 -0.04591322 -0.0045277104 -0.042629816 0.029535059 0.018560398 0.003532648 -0.026911998 0.039660063 -0.027908826 0.011070002 0.04154433 0.03016137 0.008269835 0.0185177 -0.009795357 0.018313672 0.04655725 -0.0020624287 -0.017124154 -0.041139565 -0.010760583 0.028649438 -0.037619494 -0.03412445 0.037869584 -0.01930182 0.025528375 0.034893002 -0.0033934712 0.03312142 -0.037469566 -0.017020833 -0.019032944 0.023764577 0.039804902 0.008522831 -0.005792141 0.037336316 -0.049051225 0.0039714687 -0.039003193 -0.018100701 -0.019853462 -0.008769788 -0.04840051 -0.03621931 0.029640887 -0.03229125 0.03261215 0.017371628 0.04803792 -0.042433478 -0.0034426227 -0.035016917 -0.010666348 -0.016151667 -0.03151077 -0.035627224 -0.006159235 -0.04486523 -0.026335621 -0.017104723 -0.022594 0.020926367 0.047199894 0.01130607 -0.02803278 -0.009521462 -0.0021781437 0.028840434 0.045622144 -0.008624293 -0.025630772 0.03385899 -0.012411129 0.0054874197 0.026135158 -0.02920313 0.0023895614 -0.010799516 -0.029634262
median -0.040629257 -0.015053846 0.034925852 -0.038693547 0.04422876 -0.048789013 -0.049117267 -0.0038290732 0.043677066 0.039776687 -0.023044264 -0.022501886 -0.027119612 -0.04244367 -0.025848318 -0.033260785 0.025996994 0.023914065 0.040344957 -0.03454839 0.013449643 -0.04577141 -0.048604656 -0.046459343 0.04934894 -0.027508462 -0.04693054 -0.04482099 0.004588235 0.006842755 -0.048954297 -0.017658304 -0.026092803 0.0039272085 -0.048300385 0.032953512 -0.0009990335 0.041535128 -0.014957417 0.0082198605 -0.014798544 -0.009812761 -0.042295527 -0.047768593 -0.0012712255 0.0032125227 0.046167675 -0.049220588 -0.030482639 0.04355396 0.017622162 0.022973027 -0.022518242 0.030964885 0.0023130663 0.04911348 -0.006641902 -0.02371552 0.049025808 -0.02010101 -0.02863649 -0.043882836 0.045087907 0.024122272 -0.01283773 0.025408376 -0.001543533 -0.013750445 0.037776362 -0.025530769 -0.010582708 0.01714236 -0.04470333 -0.010358177 0.0027852654 0.032086086 -0.03953291 -0.03489964 0.048450146 0.03642993 0.015895952 -0.021520663 -0.021122813 0.0016004331 0.044900347 0.018029775 -0.0021422617 0.023783755 -0.026146853 -0.037298776 -0.028708054 -0.048280906 -0.030654287 0.015612353 0.03949474 -0.04390161 0.0329638 0.03435346 0.00046410412 0.022559736
incubation 0.04228231 0.018795993 0.048931446 -0.02895311 0.0075825565 0.020880427 0.03853525 -0.042495847 -0.006281279 -0.047232892 -0.022031654 0.04172751 0.04348817 0.024013508 0.0077392682 0.01349609 -0.049827863 -0.030701244 -0.049472153 0.00077818707 -0.017338216 0.033351336 -0.025918448 0.04371308 0.020666216 0.040057566 0.039385233 0.0479143 0.010400999 0.033783343 0.041245434 0.025703106 0.02883375 0.008082401 0.0385394 -0.004981708 0.03783002 -0.0445894 0.015638974 -0.044789493 -0.033287026 -0.046767473 0.029708717 0.023243856 -0.030802596 -0.036763392 -0.043876972 0.013415549 0.021116082 -0.045656275 -0.033266902 -0.04408989 0.0073342435 -0.04136324 0.040030513 0.04957824 0.006099008 -0.015894376 -0.0060127005 0.0014308095 0.027068678 -0.047670137 0.020723846 -0.009185959 0.026554752 -0.010838855 -0.016280614 -0.017355978 -0.039364625 0.043133404 0.03562412 0.01760136 -0.017533768 0.011344351 -0.0043467656 0.0018519647 -0.01822399 -0.009494446 -0.020896351 0.00043220446 0.03566705 -0.0015633106 0.0024790391 -0.010214232 0.027853142 -0.019871498 0.03685465 -0.022300053 -0.00011497736 0.03286696 0.038759295 0.011985362 -0.022972321 -0.039759733 0.018243674 -0.025927305 -0.0023709051 -0.028117443 -0.005381655 0.014407482
period -0.03236165 -0.0021865852 0.010302722 -0.045856595 -0.015815545 -0.035835814 -0.02012918 0.025639262 -0.00886444 0.04241026 -0.013124742 0.032490615 -0.048244167 -0.003768146 0.021826241 -0.0072519667 -0.04677496 -0.008308936 -0.00915556 -0.0034000762 -0.040669 0.021154467 0.024135683 0.034193847 0.020913396 -0.017687857 -0.0024719946 0.007665705 0.03256363 0.026167218 -0.008333027 -0.010399103 -0.005990863 -0.0008780584 0.039403703 0.02915677 -0.021026576 0.022996966 -0.009094633 -0.035021234 0.020094369 -0.0042961948 -0.019875884 0.0025144927 -0.02908994 0.02762029 0.014250848 0.036623564 -0.004233159 -0.032345846 -0.042089917 -0.02774769 -0.035808705 0.0020528063 0.04968777 0.029985238 0.03383175 0.013647463 -0.0015127882 -0.029361272 -0.02408408 -0.026569355 0.025762532 0.04413383 0.003215313 -0.024277294 0.029632222 -0.019226015 0.013235617 -0.0020379312 0.025722194 -0.04857154 -0.040425073 0.009293415 0.043213997 0.028349843 -0.0210487 -6.1858445e-05 0.007438183 0.019533325 -0.040660072 0.0025661588 0.045093957 0.03082684 0.018436525 0.037107635 -0.048313785 0.043361392 -0.030493164 0.020137262 0.03166907 0.02414627 0.045843076 0.044547927 -0.025596762 -0.012581896 0.018142056 -0.013184451 0.0032628663 0.0011566281
infection -0.02732935 0.03390987 -0.011847496 -0.000111114234 0.034678075 0.008835804 0.031229962 -0.0021916516 0.04101492 -0.020218981 -0.030208612 0.005099036 0.013390806 -0.019717384 -0.030412639 -0.0047919042 -0.049744096 0.0019174926 -0.04566511 0.036465872 0.0059223063 0.04267844 -0.03744178 -0.034418464 0.046420407 0.010612689 0.042483043 -0.01947316 -0.015975188 -0.016261328 0.014543597 0.02108318 0.0033059344 0.018817868 0.02365375 -0.03396541 0.0007166974 -0.00576099 -0.0378971 0.009960078 0.026734207 0.029883016 0.03671607 -0.022325052 0.008829366 -0.0043735877 -0.03754287 0.010055948 -0.013780605 0.011054993 -0.014990427 0.026663426 -0.0497831 0.03468669 -0.022385383 0.04007354 -0.021672918 0.035874438 0.0010676384 -0.0073364004 -0.04795022 0.042969648 0.024339844 0.013072882 0.004986346 -0.0064264312 0.020672772 0.010748684 0.046280492 -0.023472918 0.03851292 -0.036995042 -0.0482036 0.043592144 0.024604473 0.007846035 -0.020491434 -0.004285693 0.0036939867 0.002921082 -0.047799256 0.04591385 0.02115364 0.012833383 0.03390464 -0.02854067 0.040848855 -0.046590116 0.04967643 0.012478016 0.046170924 -0.023855126 0.041681956 -0.0042698607 -0.027604735 0.028169025 0.00024145842 -0.00658641 0.012623522 0.049453627
successive -0.031080937 -0.01079775 -0.0021302216 -0.04809898 0.03362019 -0.0076056123 0.02204081 -0.0059591644 -0.029813636 0.019268904 0.012574974 0.030815829 0.026220191 -0.0016408339 -0.01362605 -0.00011013821 -0.04349642 0.0037732944 0.04389875 -0.021575546 0.029285382 0.015970659 0.010544896 0.02050842 0.044811476 0.007960666 -0.029330492 0.013881717 -0.022294808 0.045201395 0.0053115003 0.0059414506 -0.0014526136 0.004581202 -0.0024431348 0.03152999 0.0070445314 -0.015736926 0.030997362 -0.007206179 0.0071637146 -0.0017114654 0.04156368 0.03658766 -0.0061500184 0.0012542121 0.024558354 0.025113825 -0.009883463 -0.030080473 0.019785557 0.04575325 0.035514485 0.011892296 -0.048352994 0.039478946 -0.007791497 0.043442953 0.03161395 -0.0029082783 -0.018556297 0.00077943876 0.043070663 0.031632576 -0.04051553 0.0011923537 -0.010509171 -0.044084597 -0.044047713 -0.03801614 0.04856949 0.006037496 -0.026870657 -0.044951655 -0.049989965 -0.048161723 0.030187812 -0.0071564205 0.029564384 0.026978422 0.02826215 0.0470973 0.011116434 0.021945368 0.029020082 0.023144271 -0.004228331 0.046700705 -0.032433856 -0.016853202 0.037617397 -0.034768917 0.016524125 0.031055842 0.043968167 -0.009963345 -0.017482817 0.018768456 -0.032052115 0.005260002
cases -0.0047851577 0.026112247 0.027595963 -0.045324493 0.04813162 -0.035761405 0.019465338 0.022693824 0.00024507195 -0.04030795 -0.022550166 -0.0065094233 -0.010280598 0.041751 -0.022531545 -0.04679289 -0.027833903 -0.04949174 -0.040871333 -0.0058288462 -0.026773417 0.010624863 0.026234392 0.013436381 -0.009572793 -0.032672964 0.029079642 -0.015059423 -0.031532608 0.010089554 -0.00043715164 -0.046077896 0.01314855 -0.0065990314 0.042938534 -0.01846553 0.01833446 -0.0096516125 -0.024850309 0.038565043 0.028520558 0.015375521 0.028801013 -0.044980634 -0.049140822 0.007835351 0.0067455284 0.028165225 -0.0053890347 -7.1011484e-05 -0.03664576 -0.04451407 -0.045386314 -0.001888942 0.019783448 -0.008190908 0.019996371 -0.032556165 -0.04341972 0.03245355 -0.026694095 -0.005024027 -0.025711669 0.011633195 -0.013283968 0.0365516 -0.020870924 0.047661375 0.0425707 0.037624743 0.03431138 0.015294839 0.022073243 0.028624143 0.04040653 -0.04643923 -0.04795271 -0.007581819 0.03009284 -0.04449905 0.028274406 -0.02067765 0.0077659115 -0.038726557 0.033584666 0.028940942 0.010368694 0.0033775792 -0.043498017 0.04236256 -0.025246466 0.0439368 -0.0075464137 -0.036366355 -0.024284339 -0.022432078 -0.046978235 0.0046654716 -0.0192289 -0.03916644
estimated -0.040376376 -0.00041837618 -0.025536919 0.035081062 0.018922213 0.005310882 0.018974688 0.040696833 -0.006507039 -0.002175998 -0.033549324 0.00678711 -0.04124434 0.04085758 -0.010995686 -0.016649306 -0.0342304 0.019955862 0.015374731 0.0100536235 0.03447623 -0.008365702 0.026967261 -0.041189156 0.005163528 -0.0057833083 0.029825184 -0.040660344 -0.040882815 -0.043330323 0.045052733 0.048580814 0.040126573 0.043868545 0.006958831 -0.04531734 -0.041602455 -0.008587051 -0.036541462 -0.024773253 -0.034641623 0.038251232 0.0063427463 0.040496554 -0.02099886 0.0019355193 0.019963864 0.036768142 0.038694773 -0.043397035 -0.0055007115 -0.04074005 -0.031847015 0.04819235 0.016185094 -0.02498492 0.026867416 0.0141412355 0.0487161 -0.009019673 0.022713173 -0.0027019605 -0.047422674 0.009728026 -0.03410753 0.02514876 0.0051821247 0.04262289 -0.010649692 0.0044172034 -0.044624757 -0.029926527 -0.038646746 -0.045989405 0.03930186 -0.015477717 -0.022355318 0.043506097 0.014928069 -0.018602073 0.022333052 -0.018871678 0.04452679 0.036012802 -0.02356031 -0.04971037 -0.0034054741 0.04176772 0.0057845004 0.006981503 -0.01807357 -0.015732694 -0.016302072 0.035507206 0.030005183 0.018182818 0.028030444 -0.008892477 -0.038209546 -0.018804109
6 0.02576286 0.046082545 0.019198086 -0.0150533095 -0.040177476 -0.010170471 -0.02475915 0.00376774 -0.03206866 -0.02900728 -0.016862653 0.0024501458 -0.010763753 -0.00030950457 -0.012569569 -0.043007363 -0.030663742 -0.013194133 0.027613495 0.010717548 -0.045083355 -0.0068817846 -0.03936565 0.036775086 -0.011174966 -0.0446178 0.036163222 0.045036647 -0.0052983277 0.01725303 0.0011277087 -0.0030363575 -0.038597275 0.011732422 -0.026549792 -0.0043939836 -0.023606503 0.030586515 0.026398089 0.03355434 0.009788752 -0.03486489 0.033966247 0.0041338913 -0.017272256 0.008553196 -0.030318547 -0.031280458 0.022594642 -0.030485261 -0.025404751 -0.013830207 0.004522443 0.015686821 -0.039549638 0.005098559 0.0011538267 -0.03106438 0.0065383203 -0.028162455 0.047328655 0.006336678 0.013044808 0.040917326 -0.0153007135 -0.030479193 -0.019088566 0.02182177 -0.039535344 -0.0066219345 0.025113586 0.04043546 0.032810878 -0.013876785 0.046722118 -0.046183288 -0.006806433 0.005070854 0.030678425 0.0075993426 0.003797032 -0.0319119 0.025840584 -0.037547875 0.02403653 0.013531242 -0.009764958 -0.045998193 -0.025754118 -0.03911694 -0.04192569 -0.046258476 -0.019994939 0.0167153 0.026270244 -0.041752793 0.005966354 -0.017660033 0.01641209 0.011530351
means 0.007633306 0.044325065 -0.009928487 0.048848305 -0.039280258 -0.04333035 -0.04072062 -0.022283245 0.008403204 -0.00443051 0.04765949 0.042313386 0.0035925396 0.041373495 0.028541755 -0.02769847 -0.029287089 0.008786224 0.04729836 -0.035857927 -0.005309213 -0.047818195 -0.026363123 -0.031555593 0.023901533 -0.024953747 -0.011766624 0.038484123 -0.039652966 -0.0051134117 -0.026047587 0.0056251176 -0.031115962 -0.02218405 -0.03899013 0.017793719 -0.029320015 -0.038657118 0.013601113 0.00653876 -0.007035088 0.008665882 0.03357328 -0.0080678575 0.024663296 -0.01602342 0.021395098 -0.03586501 -0.04152913 0.011350714 0.031053934 -0.036537968 -0.027023053 -0.008906674 0.013374601 -0.009539843 0.030311357 -0.019934034 0.017995682 0.046349097 -0.011093773 0.025262248 -0.040248204 0.025306176 0.0007540211 0.014742877 -0.015681483 0.03305793 3.4045428e-05 -0.035150636 -0.043955613 -0.021029294 -0.04168018 -0.013498686 -0.017681718 5.476177e-07 -0.035960197 0.027733397 0.02584571 -0.024676753 0.029143225 0.010310926 0.016508851 0.029252473 0.005302798 0.005979277 -0.004459955 0.03738184 0.009967901 -0.014496423 -0.024749685 0.008622121 -0.026976204 -0.04321865 -0.041126918 0.024698686 -0.03845247 -0.041263115 0.0162475 0.006666314
spread 0.037393186 0.011897337 -0.012352716 0.037092987 0.0047144406 0.0051875487 0.04001111 -0.0018412359 0.024317209 0.037342105 -0.03544732 0.009072613 -0.016177632 -0.011681031 -0.026139056 -0.007677853 -0.026779508 0.018227767 -0.007834874 -0.049421933 -0.027060831 0.04438478 0.009768926 -0.034327127 -0.012196291 0.046055283 0.0017119423 -0.017043091 0.029571835 0.016100857 -0.032253373 -0.019966995 0.032573093 -0.044292808 -0.0040694103 -0.0493701 0.039618913 -0.041402113 -0.03866621 -0.0008001216 -0.0047182217 -0.00091632456 0.03192519 0.008990657 0.0049736723 -0.0072764046 -0.042830836 -0.018327259 -0.0010344163 -0.010458626 0.028041448 -0.04246199 0.006232597 0.016187873 0.02847531 -0.035842836 0.0010590777 -0.048982706 0.038538966 0.001503028 -0.0014260896 -0.017924964 0.044026818 0.0071435086 -0.011133373 0.013862524 -0.0010171533 0.04083318 -0.004142929 -0.03422091 -0.036884032 -0.04232973 0.039172623 0.049636092 0.0046514496 -0.0342013 -0.022072423 0.014508788 0.037860718 -0.043628205 0.038443778 -0.008621074 -0.0018464699 -0.044253647 0.0049058907 -0.026710868 -0.045244206 -0.04565922 0.0006659627 -0.027901769 -0.044769216 0.021829437 -0.0064179413 -0.005032994 0.035484437 -0.010888111 -0.012800705 0.0066418163 -0.0024583824 -0.04722321
faster -0.0122610815 0.030173074 0.045971844 0.037674297 0.043278787 0.021807466 -0.047659636 0.00949521 0.033840764 0.0151069425 -0.0035157911 -0.04717622 0.011066951 0.035534088 -0.0067278035 0.005975604 -0.025434399 -0.0066089034 -0.03990201 -0.03725835 0.018113438 -0.045533072 0.010978781 0.048017334 0.005111862 0.028740529 0.007482458 0.009408306 -0.03753916 0.03453565 0.019461762 -0.017753325 -0.021169318 0.024107765 0.037357856 0.007497538 -0.030163957 -0.02514707 -0.04155443 -0.03887092 -0.034240447 -0.028981281 -0.032019615 0.0016795509 0.044997964 -0.028285647 0.034888778 0.007225562 0.029327039 0.0096156 -0.047622778 -0.04690925 0.015071008 -0.011212967 -0.03090272 0.0028166175 0.04146895 -0.013186909 -0.0025572777 -0.035879456 0.0059640184 0.031331923 0.03626175 0.045137454 0.032017518 0.020506267 -0.032260418 -0.0037923828 0.043266382 -0.0038771257 -0.048979413 -0.028984893 -0.03056643 0.048834596 -0.032983243 -0.011114191 0.048688058 0.0030331723 -0.04029604 -0.02764671 -0.04396346 -0.025192475 0.008954108 0.0034339651 0.04955447 0.019676197 0.04880831 -0.03479644 -0.034340337 0.033355366 0.024516854 -0.04722481 0.027099144 -0.04175527 -0.013245918 0.015149798 -0.020813787 -0.013749003 0.046606425 -0.011312056
further 0.0323827 0.038540367 -0.00996251 -0.043610122 -0.0033867732 -0.024066819 -0.0156103745 -0.03107958 0.035112742 -0.02736429 0.009711586 -0.031965137 -0.010000326 0.023400057 0.03798412 -0.039769124 -0.017825723 0.039641928 -0.01607598 -0.023904884 -0.04369533 -0.014306724 0.0052222013 0.03070582 -0.020176446 0.010105561 -0.02150513 0.0355624 -0.034213997 0.020045292 -0.0050166138 -0.047094356 -0.034134187 -0.013294328 0.033175204 -0.0067149512 0.033975136 0.028826926 0.045349445 -0.004659258 0.005921744 -0.024898542 -0.03540989 -0.04378437 -0.005018126 -0.038451444 0.025736813 0.020512883 -0.028402543 0.0041730404 0.048644457 -0.0032593012 -0.046216227 -0.02631781 0.04305775 -0.047255136 0.049437273 -0.020261467 -0.006782569 -0.011529505 -0.018926669 0.02716503 0.0013365969 0.031423416 0.015017476 -0.025908744 -0.024071038 -0.031866778 -0.035339426 -0.010594904 -0.014688395 -0.045681167 -0.0061289184 0.015712056 -0.01732985 0.0362981 0.022111777 -0.011025168 0.03092498 -0.018043052 0.016794268 0.01813085 0.01692107 0.011266004 -0.022483075 0.0047322623 0.022090029 -0.020932103 0.041750286 0.018800687 0.010192573 0.010608446 0.002536904 -0.009446442 0.01651061 -0.030624676 -0.02346617 -0.037918698 -0.010452233 -0.018978273
first -0.039192222 -0.012775291 -0.0096536875 -0.036376417 -0.045988392 -0.018051457 -0.014462389 -0.0033400059 0.0397187 -0.03834021 0.016342353 -0.035810817 -0.015032887 -0.043417145 0.031018186 -0.0009319894 -0.03115362 0.044326987 -0.025243843 0.045703534 -0.04919051 0.03733934 -0.00050041825 0.035760965 0.034768704 -0.01682178 -0.023232961 0.01826645 -0.008940555 -0.010654796 -0.047786783 -0.03935516 -0.0058889985 -0.03929051 0.01914749 -0.0050784573 -0.032178737 0.037602413 -0.018269219 -0.026059771 0.043239284 -0.010776151 -0.041781425 -0.008102596 0.00540372 0.011355974 -0.043197453 -0.016065598 0.04392216 -0.04671998 0.012470268 -0.022902263 0.0032513142 0.002703797 -0.04209565 0.02220973 -0.042724516 -0.0054208264 0.019919965 0.008786917 -0.021466589 0.038296077 -0.02887528 -0.016738486 0.045353603 0.0124976635 -0.026174223 -0.020266462 -0.0319046 -0.031502508 -0.048483074 0.015254151 -0.04874177 0.009463668 -0.035077594 0.032332193 -0.007408809 0.0017323606 -0.010966647 0.021403242 0.044077966 0.043537784 -0.04902315 -0.0044528022 0.044268634 0.009744741 -0.04943786 0.020326976 0.020704772 -0.017599843 -0.035244834 0.0020883195 0.010379624 -0.0083359 0.03420091 -0.04974512 0.035066653 0.04786594 -0.02871691 -0.03641876
illness 0.0012864955 -0.0069984086 0.011802863 0.0020435937 0.020667877 0.025662843 -0.03675437 0.020753752 -0.008337665 -0.03409773 0.004353512 -0.04735682 -0.0024290904 -0.036679424 -0.029765999 0.048099194 -0.012038626 0.0087222345 0.028570462 -0.04709747 0.013247047 -0.037016284 0.0040087923 -0.02773856 -0.036810003 -0.028731942 -0.0075397864 0.013059508 0.007021319 -0.013825096 -0.030772602 -0.015367627 0.005958818 -0.04669222 0.048756246 -0.028902365 0.022455323 0.044376764 0.03720576 -0.031167699 -0.008457959 -0.041263364 0.014016282 -0.046324015 0.024678294 -0.028703785 -0.04479268 -0.010004558 -0.049371015 0.022456411 0.0030520074 0.0023069382 -0.028209174 -0.03850452 0.046043847 0.024992395 0.0010454878 -0.0017722957 0.038174633 -0.030589689 0.018208358 -0.003882587 -0.027751017 -0.014530338 -0.046720494 -0.046677984 0.03057805 -0.012418222 -0.019397367 0.031066548 0.021808628 -0.045345616 -0.01136899 -0.048424173 -0.011507176 0.0112094395 0.017991137 -0.031917587 0.01660173 3.7327409e-06 -0.0028299317 -0.044145953 0.032657195 -0.047487415 0.007863879 0.032670546 -0.026450623 -0.042935994 -0.0045510754 0.031626116 0.0045481697 0.027852837 -0.021747887 -0.04491042 0.045182835 -0.01849518 -0.017124295 0.039711285 0.0010420196 0.03518672
or 0.0026412979 -0.02867384 0.0004227534 0.03138789 0.010628618 0.005898334 -0.010071516 0.047680203 0.021667551 -0.018542051 -0.003104128 -0.010091186 0.026122238 -0.046357583 0.04264802 0.00047308207 -0.013415635 0.047406044 0.0048850887 0.015597191 0.0291291 0.028710697 0.0067336075 0.014105868 0.039469007 -0.0019914396 0.005890917 -0.009669054 -0.04678012 0.02403647 -0.013174675 0.04765686 0.018753376 -0.003232073 -0.048343983 -0.018433489 0.00041126087 -0.0023199692 0.040062416 0.0128864385 0.036235582 -0.025258709 -0.036616635 -0.030200243 -0.003878139 -0.032292783 0.03634507 -0.035447765 -0.03623253 -0.00660038 0.047489908 -0.02064842 -0.026914394 -0.015030324 0.03828461 0.033122603 0.00041598082 0.03965043 0.01654942 0.043311667 0.015831355 -0.041436113 0.048509564 -0.01672151 -0.026649809 0.017628822 0.00014616176 -0.001594305 0.047355797 0.032006565 -0.018977439 -0.024384487 0.016456138 -0.022202957 0.013626803 -0.0062849745 -0.009714652 -0.020894015 -0.04112034 -0.0070579164 -0.034745146 0.023723472 -0.022991909 0.02601732 0.0446415 -0.0479133 0.017594878 0.03745285 0.030102383 0.011755444 0.006470524 -0.029174818 0.04034468 0.018073488 0.04170401 -0.013738643 -0.010071982 0.006606709 0.047002222 -0.010852981
potentially -0.006126739 -0.02937851 -0.030414034 0.004141044 -0.0477942 0.026687715 0.045995723 0.048516285 0.0014490113 0.013000522 0.045309674 0.011305034 0.01870488 -0.024215316 0.0060583353 0.03388573 -0.007284235 -0.024710381 -0.008199941 0.029910374 0.009908281 -0.0044949427 0.019018028 0.04401729 0.014170814 -0.011529993 0.015912447 -0.010245122 -0.017123878 0.027584735 0.03419036 -0.012321867 0.020629954 0.02124082 0.016888056 -0.02367171 0.020155255 -0.017058063 0.023178387 -0.018325735 0.00040478632 0.0005182028 0.0025243163 0.0013571158 0.02075931 -0.031136215 0.048190024 0.0034341328 -0.013292719 0.014349792 0.0150022395 -0.016490113 0.027687456 -0.023801101 -0.0065189116 -0.018199526 0.020743359 0.009492457 0.042907048 -0.004350532 -0.04722917 -0.00028155 -0.029133713 0.034342896 0.048631433 -0.00095170736 -0.042221475 0.04391453 0.042076398 -0.025704086 -0.027720606 0.024639014 0.027747665 0.017680932 0.035761986 -0.022112131 -0.00034952164 0.047450308 0.041187633 -0.002787076 0.028202083 -0.007976733 0.04730611 0.014720175 -0.027233673 0.018014561 0.033988003 -0.008514024 0.04943992 0.045525063 -0.032626033 -0.009815834 0.010826409 -0.019581556 -0.032961894 -0.004119683 -0.027481688 0.002064813 0.038385276 0.038651694
pre 0.005137086 -0.032545794 0.0014998429 0.0047210567 -0.019603932 -0.008331966 -0.03760005 0.014172081 0.0009718314 0.048286166 -0.03936814 0.032475237 -0.04912057 0.0067077167 -0.023945391 0.039893318 0.003234148 -0.0016452186 -0.022233272 -0.04279114 -0.03768711 0.04701035 0.047201958 -0.008063413 0.012172483 -0.020847475 0.017306719 -0.010081518 -0.03808539 -0.032013834 -0.02597779 0.016348395 0.023083832 0.024093542 -6.151199e-05 0.023862962 0.028834414 -0.023876393 0.0142310895 0.047872994 -0.03679793 -0.006631352 0.019625966 0.018577758 -0.034698047 -0.022382105 -0.04663184 -0.045530714 -0.017273046 -0.025709927 -0.045678724 -0.036490142 0.033151995 -0.014152385 -0.024382139 0.04005071 -0.013203703 -0.043821882 -0.037111558 0.03168649 0.04140115 0.02233411 0.032433186 -0.031704344 -0.031192755 -0.009026848 0.009354435 -0.028007602 0.046853554 0.030215811 0.029601086 0.025484491 -0.017395925 -0.047518432 0.006361235 0.046929363 0.020243336 -0.012595199 0.048044596 0.007637143 -0.01644554 0.005369555 0.045828868 0.018677797 0.014179375 0.011093963 -0.024833286 0.004153382 0.026146058 -0.024895394 0.029392455 -0.043481052 0.031242598 -0.023735797 0.0016164556 -0.04341464 0.036913563 -0.009113826 0.0045161247 -0.029122412
symptomatic 0.012587536 0.047674607 0.0037321337 -0.049519278 -0.04354192 -0.021686984 -0.044088043 0.035056774 -0.035268236 0.035643365 0.0404508 0.041173134 -0.021532549 -0.042589106 0.014241282 -0.036725044 -0.02608875 0.016486157 0.018664923 -0.029463792 0.041791763 -0.026598608 -0.040014923 0.007918216 0.0025694482 -0.028102828 -0.0071337223 -0.020828022 0.04457468 -0.024394786 -0.023452258 -0.048188496 -0.001774203 0.03135029 0.0078822 -0.031943098 0.03632435 -0.04040725 0.020711627 0.009792708 -0.03164785 -0.024806583 -0.02419125 -0.0066220053 0.047006164 0.017571274 0.026493978 -0.017162539 -0.01869122 0.01531725 -0.014754891 0.025052417 -0.030461384 0.019598607 0.024205636 -0.0077430606 -0.016294025 0.036536876 0.036225248 -0.0048009157 0.028476361 -0.031939402 -0.03594748 0.008525621 -0.029129386 0.048872415 0.00414294 -0.02111057 0.0001980178 -0.014001094 0.0013157949 0.041981686 -0.030944562 -0.021150364 0.04811069 -0.015667118 0.036427405 -0.016844343 0.034593824 0.029145215 -0.046620548 0.021134008 0.0063805096 -0.039560318 0.024036888 -0.01172341 0.014662195 -0.0077279806 -0.0234254 -0.03562486 -0.028066635 0.003232561 0.005634941 -0.04432701 0.035885755 0.010651302 -0.0058099404 -0.015400983 -0.0393924 -0.0016155839
before 0.004640568 0.0044805296 0.04695337 -0.020622207 -0.046893146 -0.02296853 -0.0012816414 -0.0035256855 0.044384543 -0.046923053 -0.019739617 0.020277869 0.028301839 0.029669095 0.0275334 0.02056769 0.01888169 0.046604786 0.034859423 0.017632965 0.009093393 0.018467996 -0.038125683 -0.032441437 0.03177141 -0.020562792 -0.028299082 0.041189242 -0.04261098 -0.039685298 0.042419527 -0.04741044 0.013393965 -0.045954205 -0.03440677 0.047761146 0.0033709295 0.029610347 0.015011463 -0.012306571 -0.0052215345 0.009310566 0.00815326 0.036591243 0.0076364055 0.013818134 0.0038203113 -0.029840875 0.02619667 0.0272347 0.0058601387 -0.049058843 0.007653903 -0.030668033 0.020183299 0.04791185 -0.0011469722 -0.030418802 -0.0072180256 0.031310093 0.04759196 0.02038772 0.030511525 0.037829462 -0.0092554465 -0.025521016 0.02045596 0.037824858 0.01580182 0.030343223 -0.048144627 -0.0027593859 0.017236266 -0.02053243 0.017055523 -0.012848236 -0.03317952 0.0448311 -0.0259009 -0.04836717 -0.046196904 -0.032913648 -0.025381196 0.03360245 0.019715775 0.030842748 -0.017396677 -0.049349703 0.046836946 -0.0051505566 0.01686832 -0.028641975 0.04418173 0.018082883 0.022359576 -0.04479889 0.015441988 0.046048794 0.008716453 -0.015781414
contrast -0.024276828 0.033682812 0.011140026 0.021707926 -0.014561128 0.025637094 -0.001737915 -0.013206504 0.020819966 0.04830006 -0.029161155 -0.009088647 -0.04311638 -0.014766969 0.0037389286 0.021317754 -0.022948802 -0.037181176 -0.041405667 -0.036400832 -0.047377635 0.03546902 0.007903088 0.009338748 -0.023406982 -0.008948527 0.04345869 -0.022597885 0.013881076 -0.039073717 -0.037656497 -0.018784119 0.02413031 -0.022288824 0.0018955246 0.035794448 -0.0035269484 -0.029597104 0.031047586 0.00083744526 -0.04284489 -0.04834626 -0.03506645 -0.023169685 0.020138208 -0.009836674 -0.0404071 0.0036346428 -0.016723134 0.0046538115 -0.02468431 0.030448284 -0.0130856745 -0.013880193 0.020160723 0.045742903 -0.043083966 0.00393939 -0.040236056 -0.023961151 -0.0038038269 -0.03474344 -0.022337569 0.0040161237 0.020076897 0.014367532 0.0039992444 -0.0075965635 0.031184603 0.042402837 -0.041030467 0.033836666 -0.043884065 0.024068382 -0.043898106 -0.013598062 -0.042482425 -0.008716416 -0.041319966 0.03329766 -0.025070025 -0.045585193 0.024063434 -0.047188725 0.035631124 0.04003283 0.037967328 -0.020879125 -0.024143314 -0.043401387 -0.015468918 0.043460358 -0.04451841 -0.023055935 -0.01105826 -0.011780359 0.046316076 0.027599957 -0.008568883 0.01321641
we 0.041123215 0.018656086 -0.0020432472 -0.04670007 -0.028285658 -0.04223415 0.002894044 0.030556705 0.007118035 0.049858022 -0.046093702 -0.039963365 0.0047545917 -0.033160914 -0.010552157 -0.040104054 0.017733026 0.004866086 0.0038239472 -0.03995209 0.013846789 -0.018508457 0.007236935 -0.0035001151 -0.03305416 -0.02908702 0.0029224753 -0.04466298 0.03975464 -0.033584166 0.020848084 -0.010662936 -0.04993489 0.0010397322 0.01874945 0.0016596206 -0.0012204759 -0.023047185 -0.0052473657 -0.041291296 -0.022661103 -0.022391176 0.01926935 -0.0048321 -0.019935405 -0.004551746 0.018814947 -0.0045323595 0.010879375 -0.019659186 0.032615807 0.030907188 -0.025500406 0.0033585802 -0.0054294355 -0.009147249 0.007187903 0.015275206 -0.0041114464 0.02107874 0.012331702 0.024675298 -0.04024508 0.048907015 -0.024159407 0.021550093 -0.022297967 -0.026378512 0.046829823 0.004766833 -0.008748841 -0.02567321 -0.049058676 0.04498631 0.006542586 0.0038416497 0.015991483 -0.01592604 0.029390622 0.03648359 -0.026076352 -0.023629082 -0.02364608 -0.023568153 0.011260726 0.043313336 -0.009115912 0.009614456 0.01637498 0.043448236 -0.010939788 0.009892166 0.019438911 -0.015433587 0.048696723 -0.048802186 0.045482863 -0.012185454 0.031027924 0.033531968
learning -0.02917781 -0.015220474 -0.028356528 0.04588229 -0.013342522 -0.021785056 -0.023877025 0.025713388 -0.016216148 0.03594775 0.007839929 0.0076989755 0.024003256 -0.049400605 0.047957886 0.03974184 -0.038789414 -0.016212452 -0.006929077 0.0141217 0.007478915 0.024212684 -0.03629757 -0.04058819 -0.020789325 0.04112495 -0.040702738 -0.003215231 0.044182252 -0.016849983 -0.04258435 0.03723267 0.045390967 0.04093207 0.04397515 -0.048948836 0.03530172 0.02758434 0.031627323 0.049864653 0.0006561987 0.033479 -0.0078104846 0.022457171 0.023139779 0.00044790655 0.03782027 0.0031804554 -0.0014594682 -0.0072642937 0.028714802 0.02763087 0.04460535 0.017162133 0.012229513 -0.039999675 -0.0099208355 -0.014261078 0.018598799 -0.031429254 0.030729357 -0.019387579 0.024891082 -0.0056261793 -0.03979691 -0.014540076 0.015788529 -0.044881213 -0.04667585 0.017567385 -0.003455259 0.016165387 -0.02436465 0.023015905 -0.013766456 0.0013535134 -0.028222073 0.028777387 0.038843896 -0.04371482 -0.042568564 0.022332814 -0.017283153 -0.020045532 -0.0041073076 0.03415474 -0.027013982 0.022956047 0.039340522 -0.006639708 -0.0077024326 0.027996842 -0.013797067 0.00021643564 -0.027598513 -0.0017210245 -0.049533643 0.013934601 0.04054458 0.021315005
there 0.014086988 -0.04491457 0.01767036 0.047110226 -0.026395692 0.013087723 0.0009076111 0.021062676 -0.0011321902 -0.031180656 -0.037210643 -0.002066981 0.015971769 -0.0443295 -0.043395128 -0.008897208 -0.046155967 0.018611763 0.0042062774 -0.020589544 0.032181155 -0.03029995 0.004887618 -0.031330753 0.033328544 0.020156238 0.031184565 0.017214347 0.020676028 -0.007654775 0.007834874 0.016495857 -0.018917287 -0.043917168 0.037473347 -0.0025050752 -0.02917229 0.012828659 0.006669998 0.0066609867 0.003977753 -0.03821106 -0.010549448 0.014417876 -0.015313674 -0.006608747 0.013046708 0.04093918 0.04615167 -0.043855228 -0.01578927 0.0067153797 -0.04874152 0.0043403506 -0.033971705 -0.02173512 0.031218376 -0.043527104 -0.011792958 0.0011385679 0.03617901 0.04168609 -0.04300183 -0.022428585 0.029776644 0.00040767342 0.0006895438 0.044861723 0.0041481964 -0.02893672 -0.038896702 -0.0100195035 0.027679447 -0.0111961365 0.008208133 -0.04679196 0.0009777546 0.027549531 -0.035249136 -0.04377345 -0.042703714 0.022867862 0.0070590265 -0.04422642 -0.039404344 0.036502514 0.010964464 -0.03220935 -0.04123974 -0.009670269 0.017160844 0.024171758 -0.025486125 0.024245229 0.02007312 0.045793187 -0.0071309917 0.008689366 -0.018864512 0.046004776
people 0.02302393 -0.0076246485 0.012722243 0.038298417 0.047226455 -0.009367071 0.0458518 -0.04532204 0.047764193 0.03478143 0.032197963 0.011962533 -0.045437265 -0.01966474 0.026405822 0.014271919 -0.034149468 -0.040769257 0.023240361 -0.019996691 -0.011463273 0.04963931 -0.033304572 0.00043012947 0.037782434 -0.01434841 0.041846547 0.0046824105 0.042580176 -0.019206334 0.00096534565 0.021739472 0.04482886 0.006111551 -0.045590818 0.0045798905 -0.008206259 0.040659536 -0.04993874 0.01531985 0.04112078 -0.018425725 0.024590839 -0.0015210733 -0.0050303824 -0.0180979 -0.00807767 -0.030815054 0.024844196 -0.0075400844 0.04744253 -0.0033130273 0.042398583 0.011749577 -0.006583132 -0.039758764 -0.02643367 -0.0219239 0.024827335 0.02787942 0.047580365 0.04866675 0.029026125 -0.02941755 0.034635257 -0.034199476 0.043799166 -0.046646763 0.01851989 -0.012049414 -0.045239475 -0.014433421 -0.049432255 0.035150673 -0.02349273 0.02890027 0.008422624 -0.020591391 0.0026965737 -0.018198907 0.021506634 0.011513613 0.019751433 0.024132106 -0.014381956 -0.036362946 0.015976619 -0.020751918 -0.03440652 0.04784527 0.024283003 0.03555442 0.019851673 0.023012888 0.042390373 -0.024632765 -0.0128114 -0.00894586 -0.015702821 0.00065279007
who 0.024345707 0.030256543 -0.031126773 -0.023472095 -0.016303204 -0.019767774 0.019881893 0.03466164 0.047636557 0.01559161 0.038021777 -0.00830593 -0.03863605 0.00872742 0.03927156 -0.028357733 0.020185675 0.013413552 0.005272258 0.049481932 0.0068180673 -0.0031841025 0.04757658 -0.0144919045 -0.02324741 -0.032593 -0.0013662949 0.032744203 -0.027287055 -0.031500638 0.025744844 0.03983232 0.004197944 0.0031009093 -0.00062366575 -0.01880368 0.049670722 0.020184819 -0.027093649 0.038758073 0.0020959005 -0.029748905 -0.048190977 -0.036563028 -0.049530018 -0.034644805 -0.031185199 0.037762213 0.043181013 -0.03333025 -0.048350763 -0.041463055 -0.025884176 0.046358 -0.024062634 -0.0114280805 0.044642176 0.048895884 0.017638434 -0.03572016 -0.031529263 0.03683993 -0.03592793 -0.042897593 -0.022420704 -0.024465932 -0.012340389 -0.015645482 -0.048772097 -0.0058606267 0.003159903 -0.018039681 -0.04085647 0.036814723 0.046078388 -0.043560695 -0.0031763911 0.038341884 0.011804987 0.035838094 -0.01662419 -0.04366417 -0.010846831 -0.02308966 0.0041627176 0.036043074 -0.034740113 -0.028892398 0.018362347 0.0279552 -0.016318403 0.048899565 0.00449102 0.042755757 -0.010701992 -0.02149929 -0.042548932 -0.04777483 0.024196837 0.039289106
shed -0.036778666 -0.04649314 0.013558481 0.014721584 0.0020200498 0.018300641 -0.0064091794 -0.0108062625 -0.006739974 -0.043860316 -0.010759424 -0.014903426 0.020057466 -0.0017999187 0.03655455 -0.048011232 0.009044468 0.033528294 0.038648654 -0.030653907 -0.0042788275 0.028199706 -0.04346242 -0.04140978 0.0313063 -0.0055163614 0.00035840273 0.04100815 -0.022511316 0.011160277 -0.031874347 -0.017658602 0.009989034 0.016455952 0.047458712 -0.041083384 0.02916142 -0.019998277 -0.02053386 0.04646449 -0.043121386 0.0022536628 0.01848134 -0.033242047 -0.018111981 -0.04938519 0.02694862 -0.012624573 0.039936233 -0.024327064 -0.012700032 -0.047976922 0.033131424 0.0119146 -0.008493386 0.016168129 0.039914 -0.038711857 -0.040889956 -0.026960278 0.0027117245 0.041479673 -0.006333638 0.019118223 -0.0010225773 -0.0181695 -0.011230551 0.035692345 0.040351097 0.0035712235 0.04496703 -0.042615425 0.0064939633 0.017699573 0.012785319 -0.02740152 -0.0457559 -0.046896946 -0.0106297955 -0.045843314 -0.002812732 0.037630294 -0.008274533 0.040066425 -0.015080225 0.0480502 -0.016749777 0.04235441 0.039782945 -0.025824679 0.011229657 -0.044242203 -0.030973375 0.02857783 -0.029880285 -0.0079921 -0.045310616 0.014222454 0.021332253 0.01275127
24 0.025617573 0.029387403 -0.03804351 -0.0019594207 0.020857159 -0.0151562095 0.03036264 0.029791843 0.024539117 -0.0231583 -0.013011586 0.033687916 0.034260835 -0.00831474 0.029727306 -0.03756547 0.0010773651 -0.0050389655 0.034467887 -0.041580282 -0.011012055 -0.03152939 -0.042449344 0.04708303 0.01605035 -0.04877862 0.049738023 0.0055506118 -0.0065163486 -0.016557682 -0.042077232 0.025146868 0.046458665 -0.04897015 0.011566866 0.01744442 0.025442194 -0.04119257 -0.012562584 0.01917309 -0.021875763 -0.035765015 0.005043518 0.019781042 0.04338247 -0.012655772 -0.037357617 0.03826985 -0.047472525 -0.01166793 0.009791482 0.045301426 -0.025356889 -0.029851973 -0.0024987683 -0.0061975233 0.049572002 -0.009851407 -0.035165332 -0.04255421 -0.012032401 -0.018152129 -0.027446318 -0.047513712 -0.017284643 -0.00033068657 -0.001060091 -0.041377924 -0.00084252283 0.024742734 -0.01448258 -0.01431638 0.005707573 0.043287244 -0.020295477 0.018567827 -0.035773147 -0.047570754 0.04654828 -0.012801193 0.013726022 0.026298154 -0.047383975 0.03211428 -0.017035246 0.013571177 -0.041906428 0.020417098 -0.034115292 0.005975675 -0.0022436157 0.0447444 0.012846258 0.043886293 0.006735336 -0.036578238 0.0038115494 0.014085736 0.0154834725 -0.026719678
48 0.0011556968 0.03515928 0.03891715 -0.036104333 -0.047659576 0.006452631 -0.028026415 0.017658126 0.027803574 0.0036987662 -0.048636746 -0.049978983 0.027183224 0.03591231 -0.027256405 0.0025128946 -0.0066338778 0.03386766 0.041463744 0.047065366 -0.03103881 0.004055381 -0.04705305 0.009192228 -0.042638194 0.03926489 -0.026301552 0.014811944 0.04923973 -0.00031589344 0.019468281 0.045215283 -0.00022275373 -0.021746362 0.039086137 0.026000392 0.048328523 -0.030173814 0.009620391 -0.002003409 0.035369363 0.005526267 -0.0026662461 -0.022125006 0.033971194 -0.008484088 0.029819276 0.043262128 0.043682326 0.011475824 0.04850718 0.0043096915 0.018296923 0.01434784 -0.0032873973 0.018929068 0.015735794 0.0072079077 -0.044285417 -0.021867013 0.019162405 -0.005538784 -0.015176486 0.005502511 -0.016348433 0.022057105 0.014085475 -0.043767165 0.0403399 -0.04710834 0.020047035 -0.045215894 -0.043519344 0.04081807 0.047117356 -0.045010436 0.00096684694 0.008002959 -0.014067255 -0.018424332 -0.025074566 0.01001966 0.033550013 0.005831361 -0.03161373 0.0029707924 -0.0341038 -0.020650757 0.02104814 -0.042946626 -0.028331554 0.03751986 -0.022785699 0.04600427 0.020967785 -0.034540497 -0.037916005 0.013869453 0.039704625 0.043462086
hours -0.04449729 0.032699 0.04801594 -0.026311506 -0.020241547 0.012716498 0.015991557 0.029100846 -0.029820098 0.020768408 0.006195508 0.026600424 0.010261141 0.019087184 0.015446458 0.0064272285 -0.019675458 0.0077847466 -0.018006362 0.028933097 -0.017486226 -0.013944149 0.047287297 0.03162526 0.022019234 -0.02868141 -0.01473416 -0.01790905 -0.01816709 -0.0047053583 -0.008084942 0.005368639 -0.008560739 0.045854006 0.030089926 -0.015959036 0.008657552 0.004405666 -0.0024150126 -0.020781219 -0.03480624 0.02746607 -0.043132603 0.017258313 0.008240439 -0.0064423196 -0.035160076 -0.0060154796 -0.044415988 0.024683978 0.0052043796 0.04921676 -0.046739627 0.04699656 0.034021746 0.046799097 -0.043704845 -0.02900877 -0.021201432 0.032711256 -0.01656475 0.038928542 0.042861152 0.005976308 -0.028322209 -0.036942087 0.013047423 -0.015489794 -0.044779517 0.040658187 0.03580462 -0.046132244 -0.014669023 -0.031288043 -0.026418006 -0.000877738 -0.010404505 -0.038115848 -0.0007808916 0.008186389 0.03709561 -0.012983479 -0.01404785 0.025826287 0.037346277 -0.009676803 0.024074841 0.00033050776 -0.03960588 -0.016263165 0.003923405 -0.0020187497 -0.017904114 -0.010055613 0.011790596 0.03957698 0.018916298 -0.045315016 -0.024588143 0.042760063
prior -0.005767368 0.025948193 0.021587003 0.0024773479 0.048412334 0.0069714673 0.020480108 -0.048861444 -0.03474473 0.033467937 -0.0070213303 -0.0037381537 0.044209052 0.04358871 0.012022875 0.014616344 0.03939723 -0.026824629 -0.03996066 0.02358732 0.0045687184 0.027401242 -0.01233983 -0.021653915 -0.005421959 -0.029438186 -0.029735267 0.031384062 0.014183108 -0.049719024 -0.039198767 0.0090743415 -0.0024648197 0.0389365 -0.032570444 -0.012116205 0.042652916 0.032258872 0.018073265 0.044278372 0.029030789 0.04010414 -0.026465153 -0.03818054 0.011915982 0.04779129 0.025499765 -0.026411831 0.0077602863 0.04255053 0.045983125 -0.03953104 -0.022645498 0.008977424 -0.025732888 -0.04442054 -0.00998671 0.0036545172 0.034429397 -0.0334865 0.04356606 -0.0015783682 -0.010697685 -0.019884814 -0.023359 -0.012294937 0.039742973 -0.02412026 -0.021167327 0.038728323 0.033094477 0.04322474 0.010632552 -0.018302012 0.035764586 -0.012684751 0.030974757 -0.03528271 0.040109184 0.026387576 -0.011749696 0.011474274 -0.0101989135 -0.0071825273 -0.0060856454 -0.027562236 -0.040243186 -0.035578858 -0.0010195374 0.00848056 0.01183144 -0.022375954 -0.0019067302 -0.038062274 -0.043867707 0.025305238 0.022809777 -0.023259794 0.0007308349 0.014151249
symptom 0.0047058463 -0.022056019 0.03503907 -0.0005510561 -0.043305695 -0.012882948 -0.029903997 -0.0443931 -0.00035728142 -0.01889031 0.008952938 0.043133844 -0.0047709346 0.038890574 0.021875512 -0.012716185 0.047552433 0.023944449 0.0125678815 -0.039355684 -0.049227703 -0.033976756 -0.0035355575 -0.0013747104 0.045382354 -0.008386254 -0.037251256 0.008824099 -0.04640558 -0.043676306 -0.020100547 0.047466207 -0.0038726814 -0.049886763 0.00273633 -0.032663897 -0.01625837 -0.049188912 -0.011857521 0.041756336 0.022452246 0.028697822 0.028525118 0.046418775 0.016402531 -0.035020746 -0.029358422 -0.040952217 0.016792808 0.0041283257 0.008582853 0.001794409 -0.033639573 0.0072441213 0.0058954842 -0.03769964 0.009380259 0.009995639 0.031355392 0.0041941404 -0.011326171 -0.03803272 -0.04677583 0.0051258095 -0.008866858 0.0066167824 -0.030079389 -0.01360663 -0.03171009 0.030209158 0.037688185 -0.04115362 0.011232555 -0.020986332 -0.033562027 -0.0068618767 0.0089372285 -0.02924329 0.0057447664 0.0021230578 -0.010032058 0.00427977 -0.026261842 -0.02735188 0.030301813 0.030998912 -0.029649902 0.048443664 0.0069830194 0.04682542 -0.04849428 0.03949621 0.021298315 0.043440867 -0.020551348 -0.046721935 -0.04539311 0.0016620755 -0.022440493 -0.035446882
onset 0.0005685687 0.0337351 0.04669163 0.012178551 0.048376095 -0.010666739 -0.04572122 0.009629894 0.024192858 0.044803027 0.026119102 0.008113384 0.019282732 -0.034935437 -0.016937446 0.04374775 0.025873493 0.003700804 -0.021962678 0.019635413 0.004999019 -0.026672184 0.020215344 -0.0075709 0.023406629 -0.026145017 0.03902832 -0.02996329 -0.035763524 0.026723873 0.0038489327 -0.046276104 0.011033107 0.003125511 -0.0021458752 0.040724304 0.04547931 0.0064792745 -0.012952734 -0.0015306249 -0.020610083 0.0012163296 -0.04349177 0.01642486 0.016006995 0.03294256 -0.005471863 0.011958551 0.023491237 -0.039475776 -0.034906376 -0.019054962 -0.025103068 -0.037040018 0.0107892975 -0.0050550476 -0.015260361 -0.033077896 -0.04466183 -0.013921201 -0.0016766675 -0.023803031 -0.040522575 0.0028081052 0.044876847 0.039970044 0.024077918 0.037357572 0.036261473 -0.035091855 -0.007185947 -0.04162513 0.0012459643 -0.03499682 0.044857394 0.00082777813 0.045723964 0.0354336 0.0008201003 -0.04352602 -0.049666822 -0.00087764114 0.024357762 0.020077381 0.035017047 0.029330302 -0.026223183 -0.033737637 0.016393293 -0.043754198 -0.019645084 0.034115706 0.00045643002 -0.04396677 -0.008694101 0.016031954 0.04715759 -0.03725772 -0.0028552301 -0.0077661276
at 0.03840008 -0.028743982 0.017590586 0.0030979142 -0.0012828 -0.0027518868 0.009221375 -0.021174122 -0.032409288 -0.0036412105 -0.04951806 -0.0099642165 0.026856553 -0.03263551 -0.039177395 0.026924554 -0.03800864 -0.04296794 -0.02433517 0.04321075 -0.016907655 0.041530576 -0.032015756 -0.022530247 -0.02482511 -0.024083352 0.030242171 -0.014139712 0.0247345 -0.0129137635 0.039896037 -0.0066984184 5.9437007e-05 -0.026377691 -0.041993152 -0.038802933 -0.049281 0.011629485 0.020609323 0.009667981 -0.012228273 0.011167418 -0.038659453 0.012656782 0.006582141 0.036051337 0.007592261 0.009708919 0.031888355 -0.02069955 0.04605751 -0.043685652 0.026594449 0.0016717426 0.010633219 0.039675545 0.04114933 -0.039890014 0.045945976 0.013261292 -0.0281901 -0.034809995 0.008788753 -0.032505117 0.015265476 0.0119554885 0.03192159 -0.033037722 -0.0031113252 -0.025191784 -0.0072506666 -0.009530507 0.004437782 -0.040640783 -0.02924998 -0.0035390742 -0.03419417 0.037007872 -0.039016414 0.026728425 0.02156308 -0.03288858 -0.024617745 -0.0010721907 0.026431765 0.03872377 -0.039318144 0.031682026 0.011961602 0.006695986 -0.017472707 -0.010535836 0.0018918402 0.047249522 -0.04739219 -0.0055169947 0.016942088 0.024259593 0.030387368 -0.00616429
present 0.013196085 -0.009322487 0.028816748 0.015176427 -0.006464623 -0.0019976273 0.041622233 0.04131074 -0.01839875 0.039488424 -0.04294902 0.045321528 -0.040102385 0.023918394 -0.043384563 0.012143709 -0.022423064 0.03828526 0.029592428 -0.007253647 -0.039164066 -0.036382474 0.012486301 -0.011488758 -0.019249737 0.038878117 0.049275104 -0.015241493 -0.04973004 0.040174257 -0.028748393 -0.0024073943 -0.025539374 -0.01479926 -0.029541051 0.049890745 0.0043727644 -0.022106742 0.025528345 0.011646081 -0.047778774 -0.009148408 -0.0033824928 0.015615489 0.001920294 0.022298243 -0.043006387 -0.024033798 -0.046079706 0.04820243 -0.009304583 0.045787085 -0.02477845 0.04456413 0.03479903 -0.010955453 -0.008832276 -0.0391639 -0.037862994 0.00084907934 -0.04499922 0.044634316 -0.0046434775 -0.031516112 -0.005831789 0.018695895 0.029022109 -0.021601582 -0.03343012 -0.005445622 0.031109665 0.029267762 -0.007209003 -0.016333379 0.0035349727 -0.044379365 0.024502967 -0.01375084 -0.023161817 0.015960958 0.008790862 0.0015409216 0.0433242 0.0067225695 -0.0008462183 -0.031897783 -0.03379383 0.015875164 0.024665061 -0.04271052 -0.01672528 0.013359275 0.015182797 -0.038830124 0.014689807 -0.048257887 -0.031081116 0.013521757 -0.0061797276 -0.047547877
does 0.046892773 -0.01686994 -0.024401069 -0.039468087 -0.0141000375 0.024590794 -0.03289362 0.01095257 -0.029194355 0.024075095 0.039760638 -0.023417676 -0.015929185 -0.035480462 0.04151399 0.032721434 -0.034272004 -0.023996139 -0.011954714 0.0023010746 0.0048999786 0.026589457 -0.027712787 0.009707391 0.02266771 -0.02888887 -0.04459976 0.012012195 0.0324603 0.013895046 0.002387546 -0.03917736 0.03154028 0.00017654896 -0.013262462 0.023323428 -0.016584158 -0.0148355365 0.030948546 -0.027389515 -0.017980598 0.04344293 -0.034118295 -0.017903127 0.046022166 -0.025697589 0.049386088 0.013667036 -0.0029488578 -0.0044906735 0.008883823 -0.022098243 -0.039556433 -0.04856615 -0.031811558 0.0464958 5.3346157e-05 -0.013132919 0.04648919 -0.03300339 0.024239551 -0.018778145 -0.019500364 0.0109035 0.039922986 0.017106656 -0.034074143 -0.031795014 0.038718592 0.005508829 0.049504604 0.010807503 -0.001199197 0.03339262 -0.04890442 -0.034878492 0.025543634 0.02214383 -0.032642737 0.018693794 0.012821924 -0.0059227943 -0.010353826 -0.028952455 0.004138373 -0.017122306 -0.028003668 -0.048744213 0.0055514686 -0.029031062 -0.048636913 -0.0065174326 0.019630883 0.023078132 0.008131374 -0.039800096 0.0078040473 -0.038678695 -0.046372272 0.03348876
not 0.010132872 0.017390456 -0.04055687 -0.013141204 0.03945246 0.024331275 -0.0011070147 0.043536473 0.0152245425 -0.044573296 0.012262285 -0.0041625723 -0.023301292 -0.0073668137 -0.026900316 0.03238486 0.030340482 0.037618253 -0.023491252 -0.030956555 0.01868527 0.039528336 -0.037997674 0.013265241 -0.032674566 0.0016625747 0.038213525 -0.03067701 0.021188024 -0.005955875 0.021269169 0.043649483 -0.031805146 -0.046265747 -0.013486743 -0.01951561 0.01943374 -0.011644982 -0.027477099 -0.038381446 0.044506755 -0.011058141 0.044690084 -0.03851863 0.0029168352 0.012125351 0.003550876 0.0287056 0.038170073 -0.018150568 -0.04597206 -0.007452868 -0.023799395 -0.030998815 -0.0053464547 -0.003593266 -0.013684787 0.047580328 0.0062731616 0.013130274 0.0057310835 0.01398069 -0.024938334 -0.036020555 0.016063537 0.008993376 -0.04897834 0.044202935 -0.042037845 0.013225522 0.02068292 -0.038610376 -0.022898734 -0.037378978 -0.017891467 -0.04717789 0.04590079 0.0010552406 0.029686902 -0.036186527 0.012604404 -0.042602506 -0.029678201 0.0031395555 0.0014967918 0.0008548498 0.018035505 0.012559485 0.035330366 -0.047525194 0.020501543 -0.01815461 0.0062765256 -0.04511564 0.0072515234 0.04322907 0.011942912 0.03829621 -0.03230678 -0.033637963
